digraph Tree {
node [shape=box, style="filled", color="black", fontname="helvetica"] ;
edge [fontname="helvetica"] ;
0 [label="15 <= 0.5\ngini = 0.473\nsamples = 2590\nvalue = [1596, 994]", fillcolor="#f5cfb4"] ;
1 [label="1 <= 0.5\ngini = 0.198\nsamples = 1174\nvalue = [1043, 131]", fillcolor="#e89152"] ;
0 -> 1 [labeldistance=2.5, labelangle=45, headlabel="True"] ;
2 [label="10 <= 0.5\ngini = 0.151\nsamples = 1095\nvalue = [1005, 90]", fillcolor="#e78c4b"] ;
1 -> 2 ;
3 [label="0 <= 0.767\ngini = 0.082\nsamples = 863\nvalue = [826, 37]", fillcolor="#e68742"] ;
2 -> 3 ;
4 [label="4 <= 0.5\ngini = 0.044\nsamples = 710\nvalue = [694, 16]", fillcolor="#e6843e"] ;
3 -> 4 ;
5 [label="14 <= 0.5\ngini = 0.07\nsamples = 440\nvalue = [424, 16]", fillcolor="#e68640"] ;
4 -> 5 ;
6 [label="0 <= 0.567\ngini = 0.066\nsamples = 438\nvalue = [423, 15]", fillcolor="#e68540"] ;
5 -> 6 ;
7 [label="20 <= 0.5\ngini = 0.022\nsamples = 266\nvalue = [263, 3]", fillcolor="#e5823b"] ;
6 -> 7 ;
8 [label="6 <= 0.5\ngini = 0.042\nsamples = 139\nvalue = [136, 3]", fillcolor="#e6843d"] ;
7 -> 8 ;
9 [label="21 <= 0.5\ngini = 0.02\nsamples = 98\nvalue = [97, 1]", fillcolor="#e5823b"] ;
8 -> 9 ;
10 [label="22 <= 0.5\ngini = 0.08\nsamples = 24\nvalue = [23, 1]", fillcolor="#e68642"] ;
9 -> 10 ;
11 [label="17 <= 0.5\ngini = 0.198\nsamples = 9\nvalue = [8, 1]", fillcolor="#e89152"] ;
10 -> 11 ;
12 [label="gini = 0.0\nsamples = 4\nvalue = [4, 0]", fillcolor="#e58139"] ;
11 -> 12 ;
13 [label="23 <= 0.5\ngini = 0.32\nsamples = 5\nvalue = [4, 1]", fillcolor="#eca06a"] ;
11 -> 13 ;
14 [label="gini = 0.0\nsamples = 3\nvalue = [3, 0]", fillcolor="#e58139"] ;
13 -> 14 ;
15 [label="11 <= 0.5\ngini = 0.5\nsamples = 2\nvalue = [1, 1]", fillcolor="#ffffff"] ;
13 -> 15 ;
16 [label="gini = 0.0\nsamples = 1\nvalue = [0, 1]", fillcolor="#399de5"] ;
15 -> 16 ;
17 [label="gini = 0.0\nsamples = 1\nvalue = [1, 0]", fillcolor="#e58139"] ;
15 -> 17 ;
18 [label="gini = 0.0\nsamples = 15\nvalue = [15, 0]", fillcolor="#e58139"] ;
10 -> 18 ;
19 [label="gini = 0.0\nsamples = 74\nvalue = [74, 0]", fillcolor="#e58139"] ;
9 -> 19 ;
20 [label="16 <= 0.5\ngini = 0.093\nsamples = 41\nvalue = [39, 2]", fillcolor="#e68743"] ;
8 -> 20 ;
21 [label="24 <= 0.5\ngini = 0.056\nsamples = 35\nvalue = [34, 1]", fillcolor="#e6853f"] ;
20 -> 21 ;
22 [label="gini = 0.0\nsamples = 20\nvalue = [20, 0]", fillcolor="#e58139"] ;
21 -> 22 ;
23 [label="23 <= 0.5\ngini = 0.124\nsamples = 15\nvalue = [14, 1]", fillcolor="#e78a47"] ;
21 -> 23 ;
24 [label="gini = 0.0\nsamples = 4\nvalue = [4, 0]", fillcolor="#e58139"] ;
23 -> 24 ;
25 [label="13 <= 0.5\ngini = 0.165\nsamples = 11\nvalue = [10, 1]", fillcolor="#e88e4d"] ;
23 -> 25 ;
26 [label="gini = 0.0\nsamples = 2\nvalue = [2, 0]", fillcolor="#e58139"] ;
25 -> 26 ;
27 [label="0 <= 0.5\ngini = 0.198\nsamples = 9\nvalue = [8, 1]", fillcolor="#e89152"] ;
25 -> 27 ;
28 [label="gini = 0.0\nsamples = 2\nvalue = [2, 0]", fillcolor="#e58139"] ;
27 -> 28 ;
29 [label="3 <= 0.5\ngini = 0.245\nsamples = 7\nvalue = [6, 1]", fillcolor="#e9965a"] ;
27 -> 29 ;
30 [label="gini = 0.0\nsamples = 1\nvalue = [1, 0]", fillcolor="#e58139"] ;
29 -> 30 ;
31 [label="gini = 0.278\nsamples = 6\nvalue = [5, 1]", fillcolor="#ea9a61"] ;
29 -> 31 ;
32 [label="13 <= 0.5\ngini = 0.278\nsamples = 6\nvalue = [5, 1]", fillcolor="#ea9a61"] ;
20 -> 32 ;
33 [label="gini = 0.0\nsamples = 2\nvalue = [2, 0]", fillcolor="#e58139"] ;
32 -> 33 ;
34 [label="9 <= 0.5\ngini = 0.375\nsamples = 4\nvalue = [3, 1]", fillcolor="#eeab7b"] ;
32 -> 34 ;
35 [label="gini = 0.0\nsamples = 1\nvalue = [1, 0]", fillcolor="#e58139"] ;
34 -> 35 ;
36 [label="3 <= 0.5\ngini = 0.444\nsamples = 3\nvalue = [2, 1]", fillcolor="#f2c09c"] ;
34 -> 36 ;
37 [label="gini = 0.0\nsamples = 1\nvalue = [1, 0]", fillcolor="#e58139"] ;
36 -> 37 ;
38 [label="gini = 0.5\nsamples = 2\nvalue = [1, 1]", fillcolor="#ffffff"] ;
36 -> 38 ;
39 [label="gini = 0.0\nsamples = 127\nvalue = [127, 0]", fillcolor="#e58139"] ;
7 -> 39 ;
40 [label="24 <= 0.5\ngini = 0.13\nsamples = 172\nvalue = [160, 12]", fillcolor="#e78a48"] ;
6 -> 40 ;
41 [label="2 <= 0.5\ngini = 0.084\nsamples = 114\nvalue = [109, 5]", fillcolor="#e68742"] ;
40 -> 41 ;
42 [label="0 <= 0.633\ngini = 0.07\nsamples = 110\nvalue = [106, 4]", fillcolor="#e68640"] ;
41 -> 42 ;
43 [label="17 <= 0.5\ngini = 0.027\nsamples = 74\nvalue = [73, 1]", fillcolor="#e5833c"] ;
42 -> 43 ;
44 [label="6 <= 0.5\ngini = 0.091\nsamples = 21\nvalue = [20, 1]", fillcolor="#e68743"] ;
43 -> 44 ;
45 [label="gini = 0.0\nsamples = 17\nvalue = [17, 0]", fillcolor="#e58139"] ;
44 -> 45 ;
46 [label="9 <= 0.5\ngini = 0.375\nsamples = 4\nvalue = [3, 1]", fillcolor="#eeab7b"] ;
44 -> 46 ;
47 [label="gini = 0.0\nsamples = 2\nvalue = [2, 0]", fillcolor="#e58139"] ;
46 -> 47 ;
48 [label="11 <= 0.5\ngini = 0.5\nsamples = 2\nvalue = [1, 1]", fillcolor="#ffffff"] ;
46 -> 48 ;
49 [label="gini = 0.0\nsamples = 1\nvalue = [0, 1]", fillcolor="#399de5"] ;
48 -> 49 ;
50 [label="gini = 0.0\nsamples = 1\nvalue = [1, 0]", fillcolor="#e58139"] ;
48 -> 50 ;
51 [label="gini = 0.0\nsamples = 53\nvalue = [53, 0]", fillcolor="#e58139"] ;
43 -> 51 ;
52 [label="13 <= 0.5\ngini = 0.153\nsamples = 36\nvalue = [33, 3]", fillcolor="#e78c4b"] ;
42 -> 52 ;
53 [label="20 <= 0.5\ngini = 0.408\nsamples = 7\nvalue = [5, 2]", fillcolor="#efb388"] ;
52 -> 53 ;
54 [label="5 <= 0.5\ngini = 0.5\nsamples = 2\nvalue = [1, 1]", fillcolor="#ffffff"] ;
53 -> 54 ;
55 [label="gini = 0.0\nsamples = 1\nvalue = [0, 1]", fillcolor="#399de5"] ;
54 -> 55 ;
56 [label="gini = 0.0\nsamples = 1\nvalue = [1, 0]", fillcolor="#e58139"] ;
54 -> 56 ;
57 [label="0 <= 0.7\ngini = 0.32\nsamples = 5\nvalue = [4, 1]", fillcolor="#eca06a"] ;
53 -> 57 ;
58 [label="6 <= 0.5\ngini = 0.5\nsamples = 2\nvalue = [1, 1]", fillcolor="#ffffff"] ;
57 -> 58 ;
59 [label="gini = 0.0\nsamples = 1\nvalue = [0, 1]", fillcolor="#399de5"] ;
58 -> 59 ;
60 [label="gini = 0.0\nsamples = 1\nvalue = [1, 0]", fillcolor="#e58139"] ;
58 -> 60 ;
61 [label="gini = 0.0\nsamples = 3\nvalue = [3, 0]", fillcolor="#e58139"] ;
57 -> 61 ;
62 [label="20 <= 0.5\ngini = 0.067\nsamples = 29\nvalue = [28, 1]", fillcolor="#e68640"] ;
52 -> 62 ;
63 [label="0 <= 0.7\ngini = 0.117\nsamples = 16\nvalue = [15, 1]", fillcolor="#e78946"] ;
62 -> 63 ;
64 [label="16 <= 0.5\ngini = 0.198\nsamples = 9\nvalue = [8, 1]", fillcolor="#e89152"] ;
63 -> 64 ;
65 [label="5 <= 0.5\ngini = 0.32\nsamples = 5\nvalue = [4, 1]", fillcolor="#eca06a"] ;
64 -> 65 ;
66 [label="gini = 0.0\nsamples = 1\nvalue = [1, 0]", fillcolor="#e58139"] ;
65 -> 66 ;
67 [label="8 <= 0.5\ngini = 0.375\nsamples = 4\nvalue = [3, 1]", fillcolor="#eeab7b"] ;
65 -> 67 ;
68 [label="23 <= 0.5\ngini = 0.444\nsamples = 3\nvalue = [2, 1]", fillcolor="#f2c09c"] ;
67 -> 68 ;
69 [label="gini = 0.0\nsamples = 1\nvalue = [1, 0]", fillcolor="#e58139"] ;
68 -> 69 ;
70 [label="gini = 0.5\nsamples = 2\nvalue = [1, 1]", fillcolor="#ffffff"] ;
68 -> 70 ;
71 [label="gini = 0.0\nsamples = 1\nvalue = [1, 0]", fillcolor="#e58139"] ;
67 -> 71 ;
72 [label="gini = 0.0\nsamples = 4\nvalue = [4, 0]", fillcolor="#e58139"] ;
64 -> 72 ;
73 [label="gini = 0.0\nsamples = 7\nvalue = [7, 0]", fillcolor="#e58139"] ;
63 -> 73 ;
74 [label="gini = 0.0\nsamples = 13\nvalue = [13, 0]", fillcolor="#e58139"] ;
62 -> 74 ;
75 [label="0 <= 0.633\ngini = 0.375\nsamples = 4\nvalue = [3, 1]", fillcolor="#eeab7b"] ;
41 -> 75 ;
76 [label="gini = 0.0\nsamples = 1\nvalue = [0, 1]", fillcolor="#399de5"] ;
75 -> 76 ;
77 [label="gini = 0.0\nsamples = 3\nvalue = [3, 0]", fillcolor="#e58139"] ;
75 -> 77 ;
78 [label="16 <= 0.5\ngini = 0.212\nsamples = 58\nvalue = [51, 7]", fillcolor="#e99254"] ;
40 -> 78 ;
79 [label="11 <= 0.5\ngini = 0.337\nsamples = 28\nvalue = [22, 6]", fillcolor="#eca36f"] ;
78 -> 79 ;
80 [label="0 <= 0.633\ngini = 0.236\nsamples = 22\nvalue = [19, 3]", fillcolor="#e99558"] ;
79 -> 80 ;
81 [label="13 <= 0.5\ngini = 0.305\nsamples = 16\nvalue = [13, 3]", fillcolor="#eb9e67"] ;
80 -> 81 ;
82 [label="gini = 0.0\nsamples = 3\nvalue = [3, 0]", fillcolor="#e58139"] ;
81 -> 82 ;
83 [label="20 <= 0.5\ngini = 0.355\nsamples = 13\nvalue = [10, 3]", fillcolor="#eda774"] ;
81 -> 83 ;
84 [label="5 <= 0.5\ngini = 0.397\nsamples = 11\nvalue = [8, 3]", fillcolor="#efb083"] ;
83 -> 84 ;
85 [label="gini = 0.0\nsamples = 1\nvalue = [0, 1]", fillcolor="#399de5"] ;
84 -> 85 ;
86 [label="21 <= 0.5\ngini = 0.32\nsamples = 10\nvalue = [8, 2]", fillcolor="#eca06a"] ;
84 -> 86 ;
87 [label="gini = 0.5\nsamples = 2\nvalue = [1, 1]", fillcolor="#ffffff"] ;
86 -> 87 ;
88 [label="3 <= 0.5\ngini = 0.219\nsamples = 8\nvalue = [7, 1]", fillcolor="#e99355"] ;
86 -> 88 ;
89 [label="gini = 0.0\nsamples = 1\nvalue = [1, 0]", fillcolor="#e58139"] ;
88 -> 89 ;
90 [label="23 <= 0.5\ngini = 0.245\nsamples = 7\nvalue = [6, 1]", fillcolor="#e9965a"] ;
88 -> 90 ;
91 [label="gini = 0.0\nsamples = 1\nvalue = [1, 0]", fillcolor="#e58139"] ;
90 -> 91 ;
92 [label="gini = 0.278\nsamples = 6\nvalue = [5, 1]", fillcolor="#ea9a61"] ;
90 -> 92 ;
93 [label="gini = 0.0\nsamples = 2\nvalue = [2, 0]", fillcolor="#e58139"] ;
83 -> 93 ;
94 [label="gini = 0.0\nsamples = 6\nvalue = [6, 0]", fillcolor="#e58139"] ;
80 -> 94 ;
95 [label="20 <= 0.5\ngini = 0.5\nsamples = 6\nvalue = [3, 3]", fillcolor="#ffffff"] ;
79 -> 95 ;
96 [label="gini = 0.0\nsamples = 2\nvalue = [2, 0]", fillcolor="#e58139"] ;
95 -> 96 ;
97 [label="23 <= 0.5\ngini = 0.375\nsamples = 4\nvalue = [1, 3]", fillcolor="#7bbeee"] ;
95 -> 97 ;
98 [label="gini = 0.0\nsamples = 1\nvalue = [1, 0]", fillcolor="#e58139"] ;
97 -> 98 ;
99 [label="gini = 0.0\nsamples = 3\nvalue = [0, 3]", fillcolor="#399de5"] ;
97 -> 99 ;
100 [label="5 <= 0.5\ngini = 0.064\nsamples = 30\nvalue = [29, 1]", fillcolor="#e68540"] ;
78 -> 100 ;
101 [label="8 <= 0.5\ngini = 0.278\nsamples = 6\nvalue = [5, 1]", fillcolor="#ea9a61"] ;
100 -> 101 ;
102 [label="gini = 0.0\nsamples = 4\nvalue = [4, 0]", fillcolor="#e58139"] ;
101 -> 102 ;
103 [label="21 <= 0.5\ngini = 0.5\nsamples = 2\nvalue = [1, 1]", fillcolor="#ffffff"] ;
101 -> 103 ;
104 [label="gini = 0.0\nsamples = 1\nvalue = [0, 1]", fillcolor="#399de5"] ;
103 -> 104 ;
105 [label="gini = 0.0\nsamples = 1\nvalue = [1, 0]", fillcolor="#e58139"] ;
103 -> 105 ;
106 [label="gini = 0.0\nsamples = 24\nvalue = [24, 0]", fillcolor="#e58139"] ;
100 -> 106 ;
107 [label="0 <= 0.567\ngini = 0.5\nsamples = 2\nvalue = [1, 1]", fillcolor="#ffffff"] ;
5 -> 107 ;
108 [label="gini = 0.0\nsamples = 1\nvalue = [0, 1]", fillcolor="#399de5"] ;
107 -> 108 ;
109 [label="gini = 0.0\nsamples = 1\nvalue = [1, 0]", fillcolor="#e58139"] ;
107 -> 109 ;
110 [label="gini = 0.0\nsamples = 270\nvalue = [270, 0]", fillcolor="#e58139"] ;
4 -> 110 ;
111 [label="6 <= 0.5\ngini = 0.237\nsamples = 153\nvalue = [132, 21]", fillcolor="#e99558"] ;
3 -> 111 ;
112 [label="7 <= 0.5\ngini = 0.141\nsamples = 118\nvalue = [109, 9]", fillcolor="#e78b49"] ;
111 -> 112 ;
113 [label="0 <= 0.967\ngini = 0.113\nsamples = 116\nvalue = [109, 7]", fillcolor="#e78946"] ;
112 -> 113 ;
114 [label="22 <= 0.5\ngini = 0.099\nsamples = 115\nvalue = [109, 6]", fillcolor="#e68844"] ;
113 -> 114 ;
115 [label="0 <= 0.833\ngini = 0.075\nsamples = 102\nvalue = [98, 4]", fillcolor="#e68641"] ;
114 -> 115 ;
116 [label="21 <= 0.5\ngini = 0.048\nsamples = 81\nvalue = [79, 2]", fillcolor="#e6843e"] ;
115 -> 116 ;
117 [label="4 <= 0.5\ngini = 0.028\nsamples = 70\nvalue = [69, 1]", fillcolor="#e5833c"] ;
116 -> 117 ;
118 [label="20 <= 0.5\ngini = 0.046\nsamples = 42\nvalue = [41, 1]", fillcolor="#e6843e"] ;
117 -> 118 ;
119 [label="13 <= 0.5\ngini = 0.095\nsamples = 20\nvalue = [19, 1]", fillcolor="#e68843"] ;
118 -> 119 ;
120 [label="gini = 0.0\nsamples = 8\nvalue = [8, 0]", fillcolor="#e58139"] ;
119 -> 120 ;
121 [label="24 <= 0.5\ngini = 0.153\nsamples = 12\nvalue = [11, 1]", fillcolor="#e78c4b"] ;
119 -> 121 ;
122 [label="17 <= 0.5\ngini = 0.219\nsamples = 8\nvalue = [7, 1]", fillcolor="#e99355"] ;
121 -> 122 ;
123 [label="9 <= 0.5\ngini = 0.278\nsamples = 6\nvalue = [5, 1]", fillcolor="#ea9a61"] ;
122 -> 123 ;
124 [label="gini = 0.0\nsamples = 1\nvalue = [1, 0]", fillcolor="#e58139"] ;
123 -> 124 ;
125 [label="gini = 0.32\nsamples = 5\nvalue = [4, 1]", fillcolor="#eca06a"] ;
123 -> 125 ;
126 [label="gini = 0.0\nsamples = 2\nvalue = [2, 0]", fillcolor="#e58139"] ;
122 -> 126 ;
127 [label="gini = 0.0\nsamples = 4\nvalue = [4, 0]", fillcolor="#e58139"] ;
121 -> 127 ;
128 [label="gini = 0.0\nsamples = 22\nvalue = [22, 0]", fillcolor="#e58139"] ;
118 -> 128 ;
129 [label="gini = 0.0\nsamples = 28\nvalue = [28, 0]", fillcolor="#e58139"] ;
117 -> 129 ;
130 [label="5 <= 0.5\ngini = 0.165\nsamples = 11\nvalue = [10, 1]", fillcolor="#e88e4d"] ;
116 -> 130 ;
131 [label="gini = 0.0\nsamples = 4\nvalue = [4, 0]", fillcolor="#e58139"] ;
130 -> 131 ;
132 [label="8 <= 0.5\ngini = 0.245\nsamples = 7\nvalue = [6, 1]", fillcolor="#e9965a"] ;
130 -> 132 ;
133 [label="gini = 0.32\nsamples = 5\nvalue = [4, 1]", fillcolor="#eca06a"] ;
132 -> 133 ;
134 [label="gini = 0.0\nsamples = 2\nvalue = [2, 0]", fillcolor="#e58139"] ;
132 -> 134 ;
135 [label="13 <= 0.5\ngini = 0.172\nsamples = 21\nvalue = [19, 2]", fillcolor="#e88e4e"] ;
115 -> 135 ;
136 [label="gini = 0.0\nsamples = 10\nvalue = [10, 0]", fillcolor="#e58139"] ;
135 -> 136 ;
137 [label="16 <= 0.5\ngini = 0.298\nsamples = 11\nvalue = [9, 2]", fillcolor="#eb9d65"] ;
135 -> 137 ;
138 [label="24 <= 0.5\ngini = 0.5\nsamples = 2\nvalue = [1, 1]", fillcolor="#ffffff"] ;
137 -> 138 ;
139 [label="gini = 0.0\nsamples = 1\nvalue = [1, 0]", fillcolor="#e58139"] ;
138 -> 139 ;
140 [label="gini = 0.0\nsamples = 1\nvalue = [0, 1]", fillcolor="#399de5"] ;
138 -> 140 ;
141 [label="24 <= 0.5\ngini = 0.198\nsamples = 9\nvalue = [8, 1]", fillcolor="#e89152"] ;
137 -> 141 ;
142 [label="0 <= 0.9\ngini = 0.278\nsamples = 6\nvalue = [5, 1]", fillcolor="#ea9a61"] ;
141 -> 142 ;
143 [label="20 <= 0.5\ngini = 0.32\nsamples = 5\nvalue = [4, 1]", fillcolor="#eca06a"] ;
142 -> 143 ;
144 [label="gini = 0.375\nsamples = 4\nvalue = [3, 1]", fillcolor="#eeab7b"] ;
143 -> 144 ;
145 [label="gini = 0.0\nsamples = 1\nvalue = [1, 0]", fillcolor="#e58139"] ;
143 -> 145 ;
146 [label="gini = 0.0\nsamples = 1\nvalue = [1, 0]", fillcolor="#e58139"] ;
142 -> 146 ;
147 [label="gini = 0.0\nsamples = 3\nvalue = [3, 0]", fillcolor="#e58139"] ;
141 -> 147 ;
148 [label="4 <= 0.5\ngini = 0.26\nsamples = 13\nvalue = [11, 2]", fillcolor="#ea985d"] ;
114 -> 148 ;
149 [label="17 <= 0.5\ngini = 0.346\nsamples = 9\nvalue = [7, 2]", fillcolor="#eca572"] ;
148 -> 149 ;
150 [label="2 <= 0.5\ngini = 0.408\nsamples = 7\nvalue = [5, 2]", fillcolor="#efb388"] ;
149 -> 150 ;
151 [label="9 <= 0.5\ngini = 0.444\nsamples = 6\nvalue = [4, 2]", fillcolor="#f2c09c"] ;
150 -> 151 ;
152 [label="gini = 0.0\nsamples = 1\nvalue = [1, 0]", fillcolor="#e58139"] ;
151 -> 152 ;
153 [label="23 <= 0.5\ngini = 0.48\nsamples = 5\nvalue = [3, 2]", fillcolor="#f6d5bd"] ;
151 -> 153 ;
154 [label="gini = 0.0\nsamples = 1\nvalue = [1, 0]", fillcolor="#e58139"] ;
153 -> 154 ;
155 [label="24 <= 0.5\ngini = 0.5\nsamples = 4\nvalue = [2, 2]", fillcolor="#ffffff"] ;
153 -> 155 ;
156 [label="gini = 0.5\nsamples = 2\nvalue = [1, 1]", fillcolor="#ffffff"] ;
155 -> 156 ;
157 [label="gini = 0.5\nsamples = 2\nvalue = [1, 1]", fillcolor="#ffffff"] ;
155 -> 157 ;
158 [label="gini = 0.0\nsamples = 1\nvalue = [1, 0]", fillcolor="#e58139"] ;
150 -> 158 ;
159 [label="gini = 0.0\nsamples = 2\nvalue = [2, 0]", fillcolor="#e58139"] ;
149 -> 159 ;
160 [label="gini = 0.0\nsamples = 4\nvalue = [4, 0]", fillcolor="#e58139"] ;
148 -> 160 ;
161 [label="gini = 0.0\nsamples = 1\nvalue = [0, 1]", fillcolor="#399de5"] ;
113 -> 161 ;
162 [label="gini = 0.0\nsamples = 2\nvalue = [0, 2]", fillcolor="#399de5"] ;
112 -> 162 ;
163 [label="24 <= 0.5\ngini = 0.451\nsamples = 35\nvalue = [23, 12]", fillcolor="#f3c3a0"] ;
111 -> 163 ;
164 [label="2 <= 0.5\ngini = 0.363\nsamples = 21\nvalue = [16, 5]", fillcolor="#eda877"] ;
163 -> 164 ;
165 [label="3 <= 0.5\ngini = 0.32\nsamples = 20\nvalue = [16, 4]", fillcolor="#eca06a"] ;
164 -> 165 ;
166 [label="16 <= 0.5\ngini = 0.5\nsamples = 2\nvalue = [1, 1]", fillcolor="#ffffff"] ;
165 -> 166 ;
167 [label="gini = 0.0\nsamples = 1\nvalue = [1, 0]", fillcolor="#e58139"] ;
166 -> 167 ;
168 [label="gini = 0.0\nsamples = 1\nvalue = [0, 1]", fillcolor="#399de5"] ;
166 -> 168 ;
169 [label="9 <= 0.5\ngini = 0.278\nsamples = 18\nvalue = [15, 3]", fillcolor="#ea9a61"] ;
165 -> 169 ;
170 [label="gini = 0.0\nsamples = 5\nvalue = [5, 0]", fillcolor="#e58139"] ;
169 -> 170 ;
171 [label="0 <= 0.9\ngini = 0.355\nsamples = 13\nvalue = [10, 3]", fillcolor="#eda774"] ;
169 -> 171 ;
172 [label="23 <= 0.5\ngini = 0.397\nsamples = 11\nvalue = [8, 3]", fillcolor="#efb083"] ;
171 -> 172 ;
173 [label="gini = 0.0\nsamples = 1\nvalue = [1, 0]", fillcolor="#e58139"] ;
172 -> 173 ;
174 [label="0 <= 0.833\ngini = 0.42\nsamples = 10\nvalue = [7, 3]", fillcolor="#f0b78e"] ;
172 -> 174 ;
175 [label="13 <= 0.5\ngini = 0.48\nsamples = 5\nvalue = [3, 2]", fillcolor="#f6d5bd"] ;
174 -> 175 ;
176 [label="gini = 0.0\nsamples = 2\nvalue = [0, 2]", fillcolor="#399de5"] ;
175 -> 176 ;
177 [label="gini = 0.0\nsamples = 3\nvalue = [3, 0]", fillcolor="#e58139"] ;
175 -> 177 ;
178 [label="13 <= 0.5\ngini = 0.32\nsamples = 5\nvalue = [4, 1]", fillcolor="#eca06a"] ;
174 -> 178 ;
179 [label="gini = 0.0\nsamples = 4\nvalue = [4, 0]", fillcolor="#e58139"] ;
178 -> 179 ;
180 [label="gini = 0.0\nsamples = 1\nvalue = [0, 1]", fillcolor="#399de5"] ;
178 -> 180 ;
181 [label="gini = 0.0\nsamples = 2\nvalue = [2, 0]", fillcolor="#e58139"] ;
171 -> 181 ;
182 [label="gini = 0.0\nsamples = 1\nvalue = [0, 1]", fillcolor="#399de5"] ;
164 -> 182 ;
183 [label="20 <= 0.5\ngini = 0.5\nsamples = 14\nvalue = [7, 7]", fillcolor="#ffffff"] ;
163 -> 183 ;
184 [label="22 <= 0.5\ngini = 0.48\nsamples = 10\nvalue = [6, 4]", fillcolor="#f6d5bd"] ;
183 -> 184 ;
185 [label="14 <= 0.5\ngini = 0.444\nsamples = 9\nvalue = [6, 3]", fillcolor="#f2c09c"] ;
184 -> 185 ;
186 [label="17 <= 0.5\ngini = 0.469\nsamples = 8\nvalue = [5, 3]", fillcolor="#f5cdb0"] ;
185 -> 186 ;
187 [label="11 <= 0.5\ngini = 0.375\nsamples = 4\nvalue = [3, 1]", fillcolor="#eeab7b"] ;
186 -> 187 ;
188 [label="gini = 0.0\nsamples = 1\nvalue = [1, 0]", fillcolor="#e58139"] ;
187 -> 188 ;
189 [label="9 <= 0.5\ngini = 0.444\nsamples = 3\nvalue = [2, 1]", fillcolor="#f2c09c"] ;
187 -> 189 ;
190 [label="gini = 0.0\nsamples = 1\nvalue = [1, 0]", fillcolor="#e58139"] ;
189 -> 190 ;
191 [label="gini = 0.5\nsamples = 2\nvalue = [1, 1]", fillcolor="#ffffff"] ;
189 -> 191 ;
192 [label="13 <= 0.5\ngini = 0.5\nsamples = 4\nvalue = [2, 2]", fillcolor="#ffffff"] ;
186 -> 192 ;
193 [label="11 <= 0.5\ngini = 0.444\nsamples = 3\nvalue = [2, 1]", fillcolor="#f2c09c"] ;
192 -> 193 ;
194 [label="gini = 0.0\nsamples = 1\nvalue = [1, 0]", fillcolor="#e58139"] ;
193 -> 194 ;
195 [label="0 <= 0.833\ngini = 0.5\nsamples = 2\nvalue = [1, 1]", fillcolor="#ffffff"] ;
193 -> 195 ;
196 [label="gini = 0.0\nsamples = 1\nvalue = [1, 0]", fillcolor="#e58139"] ;
195 -> 196 ;
197 [label="gini = 0.0\nsamples = 1\nvalue = [0, 1]", fillcolor="#399de5"] ;
195 -> 197 ;
198 [label="gini = 0.0\nsamples = 1\nvalue = [0, 1]", fillcolor="#399de5"] ;
192 -> 198 ;
199 [label="gini = 0.0\nsamples = 1\nvalue = [1, 0]", fillcolor="#e58139"] ;
185 -> 199 ;
200 [label="gini = 0.0\nsamples = 1\nvalue = [0, 1]", fillcolor="#399de5"] ;
184 -> 200 ;
201 [label="16 <= 0.5\ngini = 0.375\nsamples = 4\nvalue = [1, 3]", fillcolor="#7bbeee"] ;
183 -> 201 ;
202 [label="gini = 0.0\nsamples = 2\nvalue = [0, 2]", fillcolor="#399de5"] ;
201 -> 202 ;
203 [label="gini = 0.5\nsamples = 2\nvalue = [1, 1]", fillcolor="#ffffff"] ;
201 -> 203 ;
204 [label="0 <= 0.9\ngini = 0.353\nsamples = 232\nvalue = [179, 53]", fillcolor="#eda674"] ;
2 -> 204 ;
205 [label="0 <= 0.7\ngini = 0.312\nsamples = 217\nvalue = [175, 42]", fillcolor="#eb9f69"] ;
204 -> 205 ;
206 [label="2 <= 0.5\ngini = 0.239\nsamples = 137\nvalue = [118, 19]", fillcolor="#e99559"] ;
205 -> 206 ;
207 [label="13 <= 0.5\ngini = 0.216\nsamples = 130\nvalue = [114, 16]", fillcolor="#e99355"] ;
206 -> 207 ;
208 [label="21 <= 0.5\ngini = 0.326\nsamples = 39\nvalue = [31, 8]", fillcolor="#eca26c"] ;
207 -> 208 ;
209 [label="16 <= 0.5\ngini = 0.457\nsamples = 17\nvalue = [11, 6]", fillcolor="#f3c6a5"] ;
208 -> 209 ;
210 [label="11 <= 0.5\ngini = 0.375\nsamples = 12\nvalue = [9, 3]", fillcolor="#eeab7b"] ;
209 -> 210 ;
211 [label="0 <= 0.567\ngini = 0.219\nsamples = 8\nvalue = [7, 1]", fillcolor="#e99355"] ;
210 -> 211 ;
212 [label="24 <= 0.5\ngini = 0.375\nsamples = 4\nvalue = [3, 1]", fillcolor="#eeab7b"] ;
211 -> 212 ;
213 [label="gini = 0.0\nsamples = 3\nvalue = [3, 0]", fillcolor="#e58139"] ;
212 -> 213 ;
214 [label="gini = 0.0\nsamples = 1\nvalue = [0, 1]", fillcolor="#399de5"] ;
212 -> 214 ;
215 [label="gini = 0.0\nsamples = 4\nvalue = [4, 0]", fillcolor="#e58139"] ;
211 -> 215 ;
216 [label="0 <= 0.567\ngini = 0.5\nsamples = 4\nvalue = [2, 2]", fillcolor="#ffffff"] ;
210 -> 216 ;
217 [label="gini = 0.0\nsamples = 1\nvalue = [0, 1]", fillcolor="#399de5"] ;
216 -> 217 ;
218 [label="20 <= 0.5\ngini = 0.444\nsamples = 3\nvalue = [2, 1]", fillcolor="#f2c09c"] ;
216 -> 218 ;
219 [label="gini = 0.0\nsamples = 1\nvalue = [0, 1]", fillcolor="#399de5"] ;
218 -> 219 ;
220 [label="gini = 0.0\nsamples = 2\nvalue = [2, 0]", fillcolor="#e58139"] ;
218 -> 220 ;
221 [label="11 <= 0.5\ngini = 0.48\nsamples = 5\nvalue = [2, 3]", fillcolor="#bddef6"] ;
209 -> 221 ;
222 [label="gini = 0.0\nsamples = 3\nvalue = [0, 3]", fillcolor="#399de5"] ;
221 -> 222 ;
223 [label="gini = 0.0\nsamples = 2\nvalue = [2, 0]", fillcolor="#e58139"] ;
221 -> 223 ;
224 [label="6 <= 0.5\ngini = 0.165\nsamples = 22\nvalue = [20, 2]", fillcolor="#e88e4d"] ;
208 -> 224 ;
225 [label="gini = 0.0\nsamples = 18\nvalue = [18, 0]", fillcolor="#e58139"] ;
224 -> 225 ;
226 [label="24 <= 0.5\ngini = 0.5\nsamples = 4\nvalue = [2, 2]", fillcolor="#ffffff"] ;
224 -> 226 ;
227 [label="gini = 0.0\nsamples = 1\nvalue = [1, 0]", fillcolor="#e58139"] ;
226 -> 227 ;
228 [label="0 <= 0.433\ngini = 0.444\nsamples = 3\nvalue = [1, 2]", fillcolor="#9ccef2"] ;
226 -> 228 ;
229 [label="gini = 0.0\nsamples = 1\nvalue = [1, 0]", fillcolor="#e58139"] ;
228 -> 229 ;
230 [label="gini = 0.0\nsamples = 2\nvalue = [0, 2]", fillcolor="#399de5"] ;
228 -> 230 ;
231 [label="0 <= 0.5\ngini = 0.16\nsamples = 91\nvalue = [83, 8]", fillcolor="#e88d4c"] ;
207 -> 231 ;
232 [label="0 <= 0.433\ngini = 0.375\nsamples = 12\nvalue = [9, 3]", fillcolor="#eeab7b"] ;
231 -> 232 ;
233 [label="5 <= 0.5\ngini = 0.298\nsamples = 11\nvalue = [9, 2]", fillcolor="#eb9d65"] ;
232 -> 233 ;
234 [label="16 <= 0.5\ngini = 0.444\nsamples = 6\nvalue = [4, 2]", fillcolor="#f2c09c"] ;
233 -> 234 ;
235 [label="gini = 0.0\nsamples = 1\nvalue = [0, 1]", fillcolor="#399de5"] ;
234 -> 235 ;
236 [label="20 <= 0.5\ngini = 0.32\nsamples = 5\nvalue = [4, 1]", fillcolor="#eca06a"] ;
234 -> 236 ;
237 [label="gini = 0.0\nsamples = 3\nvalue = [3, 0]", fillcolor="#e58139"] ;
236 -> 237 ;
238 [label="6 <= 0.5\ngini = 0.5\nsamples = 2\nvalue = [1, 1]", fillcolor="#ffffff"] ;
236 -> 238 ;
239 [label="gini = 0.0\nsamples = 1\nvalue = [0, 1]", fillcolor="#399de5"] ;
238 -> 239 ;
240 [label="gini = 0.0\nsamples = 1\nvalue = [1, 0]", fillcolor="#e58139"] ;
238 -> 240 ;
241 [label="gini = 0.0\nsamples = 5\nvalue = [5, 0]", fillcolor="#e58139"] ;
233 -> 241 ;
242 [label="gini = 0.0\nsamples = 1\nvalue = [0, 1]", fillcolor="#399de5"] ;
232 -> 242 ;
243 [label="0 <= 0.567\ngini = 0.119\nsamples = 79\nvalue = [74, 5]", fillcolor="#e78a46"] ;
231 -> 243 ;
244 [label="22 <= 0.5\ngini = 0.043\nsamples = 46\nvalue = [45, 1]", fillcolor="#e6843d"] ;
243 -> 244 ;
245 [label="gini = 0.0\nsamples = 38\nvalue = [38, 0]", fillcolor="#e58139"] ;
244 -> 245 ;
246 [label="16 <= 0.5\ngini = 0.219\nsamples = 8\nvalue = [7, 1]", fillcolor="#e99355"] ;
244 -> 246 ;
247 [label="23 <= 0.5\ngini = 0.444\nsamples = 3\nvalue = [2, 1]", fillcolor="#f2c09c"] ;
246 -> 247 ;
248 [label="gini = 0.0\nsamples = 1\nvalue = [1, 0]", fillcolor="#e58139"] ;
247 -> 248 ;
249 [label="gini = 0.5\nsamples = 2\nvalue = [1, 1]", fillcolor="#ffffff"] ;
247 -> 249 ;
250 [label="gini = 0.0\nsamples = 5\nvalue = [5, 0]", fillcolor="#e58139"] ;
246 -> 250 ;
251 [label="16 <= 0.5\ngini = 0.213\nsamples = 33\nvalue = [29, 4]", fillcolor="#e99254"] ;
243 -> 251 ;
252 [label="21 <= 0.5\ngini = 0.32\nsamples = 15\nvalue = [12, 3]", fillcolor="#eca06a"] ;
251 -> 252 ;
253 [label="20 <= 0.5\ngini = 0.18\nsamples = 10\nvalue = [9, 1]", fillcolor="#e88f4f"] ;
252 -> 253 ;
254 [label="gini = 0.0\nsamples = 5\nvalue = [5, 0]", fillcolor="#e58139"] ;
253 -> 254 ;
255 [label="6 <= 0.5\ngini = 0.32\nsamples = 5\nvalue = [4, 1]", fillcolor="#eca06a"] ;
253 -> 255 ;
256 [label="gini = 0.444\nsamples = 3\nvalue = [2, 1]", fillcolor="#f2c09c"] ;
255 -> 256 ;
257 [label="gini = 0.0\nsamples = 2\nvalue = [2, 0]", fillcolor="#e58139"] ;
255 -> 257 ;
258 [label="0 <= 0.633\ngini = 0.48\nsamples = 5\nvalue = [3, 2]", fillcolor="#f6d5bd"] ;
252 -> 258 ;
259 [label="5 <= 0.5\ngini = 0.375\nsamples = 4\nvalue = [3, 1]", fillcolor="#eeab7b"] ;
258 -> 259 ;
260 [label="24 <= 0.5\ngini = 0.5\nsamples = 2\nvalue = [1, 1]", fillcolor="#ffffff"] ;
259 -> 260 ;
261 [label="gini = 0.0\nsamples = 1\nvalue = [1, 0]", fillcolor="#e58139"] ;
260 -> 261 ;
262 [label="gini = 0.0\nsamples = 1\nvalue = [0, 1]", fillcolor="#399de5"] ;
260 -> 262 ;
263 [label="gini = 0.0\nsamples = 2\nvalue = [2, 0]", fillcolor="#e58139"] ;
259 -> 263 ;
264 [label="gini = 0.0\nsamples = 1\nvalue = [0, 1]", fillcolor="#399de5"] ;
258 -> 264 ;
265 [label="20 <= 0.5\ngini = 0.105\nsamples = 18\nvalue = [17, 1]", fillcolor="#e78845"] ;
251 -> 265 ;
266 [label="gini = 0.0\nsamples = 13\nvalue = [13, 0]", fillcolor="#e58139"] ;
265 -> 266 ;
267 [label="24 <= 0.5\ngini = 0.32\nsamples = 5\nvalue = [4, 1]", fillcolor="#eca06a"] ;
265 -> 267 ;
268 [label="4 <= 0.5\ngini = 0.444\nsamples = 3\nvalue = [2, 1]", fillcolor="#f2c09c"] ;
267 -> 268 ;
269 [label="gini = 0.5\nsamples = 2\nvalue = [1, 1]", fillcolor="#ffffff"] ;
268 -> 269 ;
270 [label="gini = 0.0\nsamples = 1\nvalue = [1, 0]", fillcolor="#e58139"] ;
268 -> 270 ;
271 [label="gini = 0.0\nsamples = 2\nvalue = [2, 0]", fillcolor="#e58139"] ;
267 -> 271 ;
272 [label="0 <= 0.433\ngini = 0.49\nsamples = 7\nvalue = [4, 3]", fillcolor="#f8e0ce"] ;
206 -> 272 ;
273 [label="gini = 0.0\nsamples = 2\nvalue = [0, 2]", fillcolor="#399de5"] ;
272 -> 273 ;
274 [label="6 <= 0.5\ngini = 0.32\nsamples = 5\nvalue = [4, 1]", fillcolor="#eca06a"] ;
272 -> 274 ;
275 [label="gini = 0.0\nsamples = 3\nvalue = [3, 0]", fillcolor="#e58139"] ;
274 -> 275 ;
276 [label="23 <= 0.5\ngini = 0.5\nsamples = 2\nvalue = [1, 1]", fillcolor="#ffffff"] ;
274 -> 276 ;
277 [label="gini = 0.0\nsamples = 1\nvalue = [1, 0]", fillcolor="#e58139"] ;
276 -> 277 ;
278 [label="gini = 0.0\nsamples = 1\nvalue = [0, 1]", fillcolor="#399de5"] ;
276 -> 278 ;
279 [label="16 <= 0.5\ngini = 0.41\nsamples = 80\nvalue = [57, 23]", fillcolor="#efb489"] ;
205 -> 279 ;
280 [label="13 <= 0.5\ngini = 0.469\nsamples = 40\nvalue = [25, 15]", fillcolor="#f5cdb0"] ;
279 -> 280 ;
281 [label="0 <= 0.767\ngini = 0.363\nsamples = 21\nvalue = [16, 5]", fillcolor="#eda877"] ;
280 -> 281 ;
282 [label="gini = 0.0\nsamples = 1\nvalue = [0, 1]", fillcolor="#399de5"] ;
281 -> 282 ;
283 [label="6 <= 0.5\ngini = 0.32\nsamples = 20\nvalue = [16, 4]", fillcolor="#eca06a"] ;
281 -> 283 ;
284 [label="0 <= 0.833\ngini = 0.165\nsamples = 11\nvalue = [10, 1]", fillcolor="#e88e4d"] ;
283 -> 284 ;
285 [label="gini = 0.0\nsamples = 5\nvalue = [5, 0]", fillcolor="#e58139"] ;
284 -> 285 ;
286 [label="24 <= 0.5\ngini = 0.278\nsamples = 6\nvalue = [5, 1]", fillcolor="#ea9a61"] ;
284 -> 286 ;
287 [label="gini = 0.32\nsamples = 5\nvalue = [4, 1]", fillcolor="#eca06a"] ;
286 -> 287 ;
288 [label="gini = 0.0\nsamples = 1\nvalue = [1, 0]", fillcolor="#e58139"] ;
286 -> 288 ;
289 [label="0 <= 0.833\ngini = 0.444\nsamples = 9\nvalue = [6, 3]", fillcolor="#f2c09c"] ;
283 -> 289 ;
290 [label="11 <= 0.5\ngini = 0.5\nsamples = 6\nvalue = [3, 3]", fillcolor="#ffffff"] ;
289 -> 290 ;
291 [label="gini = 0.0\nsamples = 1\nvalue = [1, 0]", fillcolor="#e58139"] ;
290 -> 291 ;
292 [label="24 <= 0.5\ngini = 0.48\nsamples = 5\nvalue = [2, 3]", fillcolor="#bddef6"] ;
290 -> 292 ;
293 [label="gini = 0.5\nsamples = 2\nvalue = [1, 1]", fillcolor="#ffffff"] ;
292 -> 293 ;
294 [label="gini = 0.444\nsamples = 3\nvalue = [1, 2]", fillcolor="#9ccef2"] ;
292 -> 294 ;
295 [label="gini = 0.0\nsamples = 3\nvalue = [3, 0]", fillcolor="#e58139"] ;
289 -> 295 ;
296 [label="2 <= 0.5\ngini = 0.499\nsamples = 19\nvalue = [9, 10]", fillcolor="#ebf5fc"] ;
280 -> 296 ;
297 [label="0 <= 0.767\ngini = 0.498\nsamples = 17\nvalue = [9, 8]", fillcolor="#fcf1e9"] ;
296 -> 297 ;
298 [label="gini = 0.0\nsamples = 1\nvalue = [0, 1]", fillcolor="#399de5"] ;
297 -> 298 ;
299 [label="6 <= 0.5\ngini = 0.492\nsamples = 16\nvalue = [9, 7]", fillcolor="#f9e3d3"] ;
297 -> 299 ;
300 [label="20 <= 0.5\ngini = 0.496\nsamples = 11\nvalue = [5, 6]", fillcolor="#deeffb"] ;
299 -> 300 ;
301 [label="0 <= 0.833\ngini = 0.48\nsamples = 10\nvalue = [4, 6]", fillcolor="#bddef6"] ;
300 -> 301 ;
302 [label="22 <= 0.5\ngini = 0.494\nsamples = 9\nvalue = [4, 5]", fillcolor="#d7ebfa"] ;
301 -> 302 ;
303 [label="24 <= 0.5\ngini = 0.5\nsamples = 6\nvalue = [3, 3]", fillcolor="#ffffff"] ;
302 -> 303 ;
304 [label="gini = 0.5\nsamples = 4\nvalue = [2, 2]", fillcolor="#ffffff"] ;
303 -> 304 ;
305 [label="gini = 0.5\nsamples = 2\nvalue = [1, 1]", fillcolor="#ffffff"] ;
303 -> 305 ;
306 [label="24 <= 0.5\ngini = 0.444\nsamples = 3\nvalue = [1, 2]", fillcolor="#9ccef2"] ;
302 -> 306 ;
307 [label="gini = 0.5\nsamples = 2\nvalue = [1, 1]", fillcolor="#ffffff"] ;
306 -> 307 ;
308 [label="gini = 0.0\nsamples = 1\nvalue = [0, 1]", fillcolor="#399de5"] ;
306 -> 308 ;
309 [label="gini = 0.0\nsamples = 1\nvalue = [0, 1]", fillcolor="#399de5"] ;
301 -> 309 ;
310 [label="gini = 0.0\nsamples = 1\nvalue = [1, 0]", fillcolor="#e58139"] ;
300 -> 310 ;
311 [label="24 <= 0.5\ngini = 0.32\nsamples = 5\nvalue = [4, 1]", fillcolor="#eca06a"] ;
299 -> 311 ;
312 [label="gini = 0.0\nsamples = 4\nvalue = [4, 0]", fillcolor="#e58139"] ;
311 -> 312 ;
313 [label="gini = 0.0\nsamples = 1\nvalue = [0, 1]", fillcolor="#399de5"] ;
311 -> 313 ;
314 [label="gini = 0.0\nsamples = 2\nvalue = [0, 2]", fillcolor="#399de5"] ;
296 -> 314 ;
315 [label="0 <= 0.833\ngini = 0.32\nsamples = 40\nvalue = [32, 8]", fillcolor="#eca06a"] ;
279 -> 315 ;
316 [label="6 <= 0.5\ngini = 0.231\nsamples = 30\nvalue = [26, 4]", fillcolor="#e99457"] ;
315 -> 316 ;
317 [label="23 <= 0.5\ngini = 0.198\nsamples = 27\nvalue = [24, 3]", fillcolor="#e89152"] ;
316 -> 317 ;
318 [label="24 <= 0.5\ngini = 0.444\nsamples = 3\nvalue = [2, 1]", fillcolor="#f2c09c"] ;
317 -> 318 ;
319 [label="gini = 0.0\nsamples = 2\nvalue = [2, 0]", fillcolor="#e58139"] ;
318 -> 319 ;
320 [label="gini = 0.0\nsamples = 1\nvalue = [0, 1]", fillcolor="#399de5"] ;
318 -> 320 ;
321 [label="20 <= 0.5\ngini = 0.153\nsamples = 24\nvalue = [22, 2]", fillcolor="#e78c4b"] ;
317 -> 321 ;
322 [label="24 <= 0.5\ngini = 0.1\nsamples = 19\nvalue = [18, 1]", fillcolor="#e68844"] ;
321 -> 322 ;
323 [label="13 <= 0.5\ngini = 0.278\nsamples = 6\nvalue = [5, 1]", fillcolor="#ea9a61"] ;
322 -> 323 ;
324 [label="gini = 0.0\nsamples = 2\nvalue = [2, 0]", fillcolor="#e58139"] ;
323 -> 324 ;
325 [label="0 <= 0.767\ngini = 0.375\nsamples = 4\nvalue = [3, 1]", fillcolor="#eeab7b"] ;
323 -> 325 ;
326 [label="gini = 0.0\nsamples = 1\nvalue = [1, 0]", fillcolor="#e58139"] ;
325 -> 326 ;
327 [label="gini = 0.444\nsamples = 3\nvalue = [2, 1]", fillcolor="#f2c09c"] ;
325 -> 327 ;
328 [label="gini = 0.0\nsamples = 13\nvalue = [13, 0]", fillcolor="#e58139"] ;
322 -> 328 ;
329 [label="24 <= 0.5\ngini = 0.32\nsamples = 5\nvalue = [4, 1]", fillcolor="#eca06a"] ;
321 -> 329 ;
330 [label="gini = 0.0\nsamples = 3\nvalue = [3, 0]", fillcolor="#e58139"] ;
329 -> 330 ;
331 [label="gini = 0.5\nsamples = 2\nvalue = [1, 1]", fillcolor="#ffffff"] ;
329 -> 331 ;
332 [label="24 <= 0.5\ngini = 0.444\nsamples = 3\nvalue = [2, 1]", fillcolor="#f2c09c"] ;
316 -> 332 ;
333 [label="gini = 0.0\nsamples = 2\nvalue = [2, 0]", fillcolor="#e58139"] ;
332 -> 333 ;
334 [label="gini = 0.0\nsamples = 1\nvalue = [0, 1]", fillcolor="#399de5"] ;
332 -> 334 ;
335 [label="20 <= 0.5\ngini = 0.48\nsamples = 10\nvalue = [6, 4]", fillcolor="#f6d5bd"] ;
315 -> 335 ;
336 [label="6 <= 0.5\ngini = 0.5\nsamples = 8\nvalue = [4, 4]", fillcolor="#ffffff"] ;
335 -> 336 ;
337 [label="22 <= 0.5\ngini = 0.49\nsamples = 7\nvalue = [3, 4]", fillcolor="#cee6f8"] ;
336 -> 337 ;
338 [label="13 <= 0.5\ngini = 0.444\nsamples = 6\nvalue = [2, 4]", fillcolor="#9ccef2"] ;
337 -> 338 ;
339 [label="24 <= 0.5\ngini = 0.444\nsamples = 3\nvalue = [2, 1]", fillcolor="#f2c09c"] ;
338 -> 339 ;
340 [label="gini = 0.0\nsamples = 1\nvalue = [1, 0]", fillcolor="#e58139"] ;
339 -> 340 ;
341 [label="gini = 0.5\nsamples = 2\nvalue = [1, 1]", fillcolor="#ffffff"] ;
339 -> 341 ;
342 [label="gini = 0.0\nsamples = 3\nvalue = [0, 3]", fillcolor="#399de5"] ;
338 -> 342 ;
343 [label="gini = 0.0\nsamples = 1\nvalue = [1, 0]", fillcolor="#e58139"] ;
337 -> 343 ;
344 [label="gini = 0.0\nsamples = 1\nvalue = [1, 0]", fillcolor="#e58139"] ;
336 -> 344 ;
345 [label="gini = 0.0\nsamples = 2\nvalue = [2, 0]", fillcolor="#e58139"] ;
335 -> 345 ;
346 [label="24 <= 0.5\ngini = 0.391\nsamples = 15\nvalue = [4, 11]", fillcolor="#81c1ee"] ;
204 -> 346 ;
347 [label="13 <= 0.5\ngini = 0.219\nsamples = 8\nvalue = [1, 7]", fillcolor="#55abe9"] ;
346 -> 347 ;
348 [label="6 <= 0.5\ngini = 0.375\nsamples = 4\nvalue = [1, 3]", fillcolor="#7bbeee"] ;
347 -> 348 ;
349 [label="23 <= 0.5\ngini = 0.5\nsamples = 2\nvalue = [1, 1]", fillcolor="#ffffff"] ;
348 -> 349 ;
350 [label="gini = 0.0\nsamples = 1\nvalue = [0, 1]", fillcolor="#399de5"] ;
349 -> 350 ;
351 [label="gini = 0.0\nsamples = 1\nvalue = [1, 0]", fillcolor="#e58139"] ;
349 -> 351 ;
352 [label="gini = 0.0\nsamples = 2\nvalue = [0, 2]", fillcolor="#399de5"] ;
348 -> 352 ;
353 [label="gini = 0.0\nsamples = 4\nvalue = [0, 4]", fillcolor="#399de5"] ;
347 -> 353 ;
354 [label="16 <= 0.5\ngini = 0.49\nsamples = 7\nvalue = [3, 4]", fillcolor="#cee6f8"] ;
346 -> 354 ;
355 [label="gini = 0.0\nsamples = 1\nvalue = [0, 1]", fillcolor="#399de5"] ;
354 -> 355 ;
356 [label="11 <= 0.5\ngini = 0.5\nsamples = 6\nvalue = [3, 3]", fillcolor="#ffffff"] ;
354 -> 356 ;
357 [label="0 <= 0.967\ngini = 0.5\nsamples = 4\nvalue = [2, 2]", fillcolor="#ffffff"] ;
356 -> 357 ;
358 [label="gini = 0.5\nsamples = 2\nvalue = [1, 1]", fillcolor="#ffffff"] ;
357 -> 358 ;
359 [label="gini = 0.5\nsamples = 2\nvalue = [1, 1]", fillcolor="#ffffff"] ;
357 -> 359 ;
360 [label="gini = 0.5\nsamples = 2\nvalue = [1, 1]", fillcolor="#ffffff"] ;
356 -> 360 ;
361 [label="0 <= 0.767\ngini = 0.499\nsamples = 79\nvalue = [38, 41]", fillcolor="#f1f8fd"] ;
1 -> 361 ;
362 [label="24 <= 0.5\ngini = 0.423\nsamples = 46\nvalue = [32, 14]", fillcolor="#f0b890"] ;
361 -> 362 ;
363 [label="23 <= 0.5\ngini = 0.32\nsamples = 25\nvalue = [20, 5]", fillcolor="#eca06a"] ;
362 -> 363 ;
364 [label="gini = 0.0\nsamples = 6\nvalue = [6, 0]", fillcolor="#e58139"] ;
363 -> 364 ;
365 [label="5 <= 0.5\ngini = 0.388\nsamples = 19\nvalue = [14, 5]", fillcolor="#eeae80"] ;
363 -> 365 ;
366 [label="8 <= 0.5\ngini = 0.18\nsamples = 10\nvalue = [9, 1]", fillcolor="#e88f4f"] ;
365 -> 366 ;
367 [label="gini = 0.0\nsamples = 6\nvalue = [6, 0]", fillcolor="#e58139"] ;
366 -> 367 ;
368 [label="20 <= 0.5\ngini = 0.375\nsamples = 4\nvalue = [3, 1]", fillcolor="#eeab7b"] ;
366 -> 368 ;
369 [label="13 <= 0.5\ngini = 0.5\nsamples = 2\nvalue = [1, 1]", fillcolor="#ffffff"] ;
368 -> 369 ;
370 [label="gini = 0.0\nsamples = 1\nvalue = [0, 1]", fillcolor="#399de5"] ;
369 -> 370 ;
371 [label="gini = 0.0\nsamples = 1\nvalue = [1, 0]", fillcolor="#e58139"] ;
369 -> 371 ;
372 [label="gini = 0.0\nsamples = 2\nvalue = [2, 0]", fillcolor="#e58139"] ;
368 -> 372 ;
373 [label="0 <= 0.567\ngini = 0.494\nsamples = 9\nvalue = [5, 4]", fillcolor="#fae6d7"] ;
365 -> 373 ;
374 [label="gini = 0.0\nsamples = 1\nvalue = [1, 0]", fillcolor="#e58139"] ;
373 -> 374 ;
375 [label="17 <= 0.5\ngini = 0.5\nsamples = 8\nvalue = [4, 4]", fillcolor="#ffffff"] ;
373 -> 375 ;
376 [label="gini = 0.0\nsamples = 2\nvalue = [0, 2]", fillcolor="#399de5"] ;
375 -> 376 ;
377 [label="10 <= 0.5\ngini = 0.444\nsamples = 6\nvalue = [4, 2]", fillcolor="#f2c09c"] ;
375 -> 377 ;
378 [label="0 <= 0.7\ngini = 0.5\nsamples = 4\nvalue = [2, 2]", fillcolor="#ffffff"] ;
377 -> 378 ;
379 [label="0 <= 0.633\ngini = 0.444\nsamples = 3\nvalue = [1, 2]", fillcolor="#9ccef2"] ;
378 -> 379 ;
380 [label="9 <= 0.5\ngini = 0.5\nsamples = 2\nvalue = [1, 1]", fillcolor="#ffffff"] ;
379 -> 380 ;
381 [label="gini = 0.0\nsamples = 1\nvalue = [0, 1]", fillcolor="#399de5"] ;
380 -> 381 ;
382 [label="gini = 0.0\nsamples = 1\nvalue = [1, 0]", fillcolor="#e58139"] ;
380 -> 382 ;
383 [label="gini = 0.0\nsamples = 1\nvalue = [0, 1]", fillcolor="#399de5"] ;
379 -> 383 ;
384 [label="gini = 0.0\nsamples = 1\nvalue = [1, 0]", fillcolor="#e58139"] ;
378 -> 384 ;
385 [label="gini = 0.0\nsamples = 2\nvalue = [2, 0]", fillcolor="#e58139"] ;
377 -> 385 ;
386 [label="11 <= 0.5\ngini = 0.49\nsamples = 21\nvalue = [12, 9]", fillcolor="#f8e0ce"] ;
362 -> 386 ;
387 [label="23 <= 0.5\ngini = 0.43\nsamples = 16\nvalue = [11, 5]", fillcolor="#f1ba93"] ;
386 -> 387 ;
388 [label="gini = 0.0\nsamples = 2\nvalue = [0, 2]", fillcolor="#399de5"] ;
387 -> 388 ;
389 [label="0 <= 0.567\ngini = 0.337\nsamples = 14\nvalue = [11, 3]", fillcolor="#eca36f"] ;
387 -> 389 ;
390 [label="22 <= 0.5\ngini = 0.469\nsamples = 8\nvalue = [5, 3]", fillcolor="#f5cdb0"] ;
389 -> 390 ;
391 [label="4 <= 0.5\ngini = 0.48\nsamples = 5\nvalue = [2, 3]", fillcolor="#bddef6"] ;
390 -> 391 ;
392 [label="21 <= 0.5\ngini = 0.375\nsamples = 4\nvalue = [1, 3]", fillcolor="#7bbeee"] ;
391 -> 392 ;
393 [label="20 <= 0.5\ngini = 0.5\nsamples = 2\nvalue = [1, 1]", fillcolor="#ffffff"] ;
392 -> 393 ;
394 [label="gini = 0.0\nsamples = 1\nvalue = [1, 0]", fillcolor="#e58139"] ;
393 -> 394 ;
395 [label="gini = 0.0\nsamples = 1\nvalue = [0, 1]", fillcolor="#399de5"] ;
393 -> 395 ;
396 [label="gini = 0.0\nsamples = 2\nvalue = [0, 2]", fillcolor="#399de5"] ;
392 -> 396 ;
397 [label="gini = 0.0\nsamples = 1\nvalue = [1, 0]", fillcolor="#e58139"] ;
391 -> 397 ;
398 [label="gini = 0.0\nsamples = 3\nvalue = [3, 0]", fillcolor="#e58139"] ;
390 -> 398 ;
399 [label="gini = 0.0\nsamples = 6\nvalue = [6, 0]", fillcolor="#e58139"] ;
389 -> 399 ;
400 [label="23 <= 0.5\ngini = 0.32\nsamples = 5\nvalue = [1, 4]", fillcolor="#6ab6ec"] ;
386 -> 400 ;
401 [label="gini = 0.0\nsamples = 1\nvalue = [1, 0]", fillcolor="#e58139"] ;
400 -> 401 ;
402 [label="gini = 0.0\nsamples = 4\nvalue = [0, 4]", fillcolor="#399de5"] ;
400 -> 402 ;
403 [label="4 <= 0.5\ngini = 0.298\nsamples = 33\nvalue = [6, 27]", fillcolor="#65b3eb"] ;
361 -> 403 ;
404 [label="10 <= 0.5\ngini = 0.225\nsamples = 31\nvalue = [4, 27]", fillcolor="#56ace9"] ;
403 -> 404 ;
405 [label="24 <= 0.5\ngini = 0.463\nsamples = 11\nvalue = [4, 7]", fillcolor="#aad5f4"] ;
404 -> 405 ;
406 [label="23 <= 0.5\ngini = 0.444\nsamples = 6\nvalue = [4, 2]", fillcolor="#f2c09c"] ;
405 -> 406 ;
407 [label="gini = 0.0\nsamples = 1\nvalue = [0, 1]", fillcolor="#399de5"] ;
406 -> 407 ;
408 [label="22 <= 0.5\ngini = 0.32\nsamples = 5\nvalue = [4, 1]", fillcolor="#eca06a"] ;
406 -> 408 ;
409 [label="gini = 0.0\nsamples = 4\nvalue = [4, 0]", fillcolor="#e58139"] ;
408 -> 409 ;
410 [label="gini = 0.0\nsamples = 1\nvalue = [0, 1]", fillcolor="#399de5"] ;
408 -> 410 ;
411 [label="gini = 0.0\nsamples = 5\nvalue = [0, 5]", fillcolor="#399de5"] ;
405 -> 411 ;
412 [label="gini = 0.0\nsamples = 20\nvalue = [0, 20]", fillcolor="#399de5"] ;
404 -> 412 ;
413 [label="gini = 0.0\nsamples = 2\nvalue = [2, 0]", fillcolor="#e58139"] ;
403 -> 413 ;
414 [label="0 <= 0.567\ngini = 0.476\nsamples = 1416\nvalue = [553, 863]", fillcolor="#b8dcf6"] ;
0 -> 414 [labeldistance=2.5, labelangle=-45, headlabel="False"] ;
415 [label="1 <= 0.5\ngini = 0.477\nsamples = 559\nvalue = [340, 219]", fillcolor="#f6d2b9"] ;
414 -> 415 ;
416 [label="0 <= 0.367\ngini = 0.454\nsamples = 494\nvalue = [322, 172]", fillcolor="#f3c4a3"] ;
415 -> 416 ;
417 [label="2 <= 0.5\ngini = 0.243\nsamples = 92\nvalue = [79, 13]", fillcolor="#e9965a"] ;
416 -> 417 ;
418 [label="14 <= 0.5\ngini = 0.215\nsamples = 90\nvalue = [79, 11]", fillcolor="#e99355"] ;
417 -> 418 ;
419 [label="0 <= 0.233\ngini = 0.189\nsamples = 85\nvalue = [76, 9]", fillcolor="#e89050"] ;
418 -> 419 ;
420 [label="6 <= 0.5\ngini = 0.093\nsamples = 41\nvalue = [39, 2]", fillcolor="#e68743"] ;
419 -> 420 ;
421 [label="gini = 0.0\nsamples = 19\nvalue = [19, 0]", fillcolor="#e58139"] ;
420 -> 421 ;
422 [label="0 <= 0.167\ngini = 0.165\nsamples = 22\nvalue = [20, 2]", fillcolor="#e88e4d"] ;
420 -> 422 ;
423 [label="gini = 0.0\nsamples = 8\nvalue = [8, 0]", fillcolor="#e58139"] ;
422 -> 423 ;
424 [label="3 <= 0.5\ngini = 0.245\nsamples = 14\nvalue = [12, 2]", fillcolor="#e9965a"] ;
422 -> 424 ;
425 [label="gini = 0.0\nsamples = 4\nvalue = [4, 0]", fillcolor="#e58139"] ;
424 -> 425 ;
426 [label="9 <= 0.5\ngini = 0.32\nsamples = 10\nvalue = [8, 2]", fillcolor="#eca06a"] ;
424 -> 426 ;
427 [label="gini = 0.0\nsamples = 3\nvalue = [3, 0]", fillcolor="#e58139"] ;
426 -> 427 ;
428 [label="13 <= 0.5\ngini = 0.408\nsamples = 7\nvalue = [5, 2]", fillcolor="#efb388"] ;
426 -> 428 ;
429 [label="gini = 0.0\nsamples = 2\nvalue = [2, 0]", fillcolor="#e58139"] ;
428 -> 429 ;
430 [label="gini = 0.48\nsamples = 5\nvalue = [3, 2]", fillcolor="#f6d5bd"] ;
428 -> 430 ;
431 [label="11 <= 0.5\ngini = 0.268\nsamples = 44\nvalue = [37, 7]", fillcolor="#ea995e"] ;
419 -> 431 ;
432 [label="10 <= 0.5\ngini = 0.24\nsamples = 43\nvalue = [37, 6]", fillcolor="#e99559"] ;
431 -> 432 ;
433 [label="24 <= 0.5\ngini = 0.17\nsamples = 32\nvalue = [29, 3]", fillcolor="#e88e4d"] ;
432 -> 433 ;
434 [label="0 <= 0.3\ngini = 0.444\nsamples = 3\nvalue = [2, 1]", fillcolor="#f2c09c"] ;
433 -> 434 ;
435 [label="gini = 0.0\nsamples = 1\nvalue = [0, 1]", fillcolor="#399de5"] ;
434 -> 435 ;
436 [label="gini = 0.0\nsamples = 2\nvalue = [2, 0]", fillcolor="#e58139"] ;
434 -> 436 ;
437 [label="0 <= 0.3\ngini = 0.128\nsamples = 29\nvalue = [27, 2]", fillcolor="#e78a48"] ;
433 -> 437 ;
438 [label="gini = 0.0\nsamples = 13\nvalue = [13, 0]", fillcolor="#e58139"] ;
437 -> 438 ;
439 [label="8 <= 0.5\ngini = 0.219\nsamples = 16\nvalue = [14, 2]", fillcolor="#e99355"] ;
437 -> 439 ;
440 [label="5 <= 0.5\ngini = 0.153\nsamples = 12\nvalue = [11, 1]", fillcolor="#e78c4b"] ;
439 -> 440 ;
441 [label="gini = 0.0\nsamples = 5\nvalue = [5, 0]", fillcolor="#e58139"] ;
440 -> 441 ;
442 [label="gini = 0.245\nsamples = 7\nvalue = [6, 1]", fillcolor="#e9965a"] ;
440 -> 442 ;
443 [label="6 <= 0.5\ngini = 0.375\nsamples = 4\nvalue = [3, 1]", fillcolor="#eeab7b"] ;
439 -> 443 ;
444 [label="gini = 0.0\nsamples = 2\nvalue = [2, 0]", fillcolor="#e58139"] ;
443 -> 444 ;
445 [label="gini = 0.5\nsamples = 2\nvalue = [1, 1]", fillcolor="#ffffff"] ;
443 -> 445 ;
446 [label="5 <= 0.5\ngini = 0.397\nsamples = 11\nvalue = [8, 3]", fillcolor="#efb083"] ;
432 -> 446 ;
447 [label="13 <= 0.5\ngini = 0.48\nsamples = 5\nvalue = [2, 3]", fillcolor="#bddef6"] ;
446 -> 447 ;
448 [label="gini = 0.0\nsamples = 1\nvalue = [1, 0]", fillcolor="#e58139"] ;
447 -> 448 ;
449 [label="21 <= 0.5\ngini = 0.375\nsamples = 4\nvalue = [1, 3]", fillcolor="#7bbeee"] ;
447 -> 449 ;
450 [label="0 <= 0.3\ngini = 0.444\nsamples = 3\nvalue = [1, 2]", fillcolor="#9ccef2"] ;
449 -> 450 ;
451 [label="gini = 0.0\nsamples = 1\nvalue = [0, 1]", fillcolor="#399de5"] ;
450 -> 451 ;
452 [label="gini = 0.5\nsamples = 2\nvalue = [1, 1]", fillcolor="#ffffff"] ;
450 -> 452 ;
453 [label="gini = 0.0\nsamples = 1\nvalue = [0, 1]", fillcolor="#399de5"] ;
449 -> 453 ;
454 [label="gini = 0.0\nsamples = 6\nvalue = [6, 0]", fillcolor="#e58139"] ;
446 -> 454 ;
455 [label="gini = 0.0\nsamples = 1\nvalue = [0, 1]", fillcolor="#399de5"] ;
431 -> 455 ;
456 [label="0 <= 0.267\ngini = 0.48\nsamples = 5\nvalue = [3, 2]", fillcolor="#f6d5bd"] ;
418 -> 456 ;
457 [label="10 <= 0.5\ngini = 0.5\nsamples = 4\nvalue = [2, 2]", fillcolor="#ffffff"] ;
456 -> 457 ;
458 [label="22 <= 0.5\ngini = 0.444\nsamples = 3\nvalue = [1, 2]", fillcolor="#9ccef2"] ;
457 -> 458 ;
459 [label="0 <= 0.167\ngini = 0.5\nsamples = 2\nvalue = [1, 1]", fillcolor="#ffffff"] ;
458 -> 459 ;
460 [label="gini = 0.0\nsamples = 1\nvalue = [1, 0]", fillcolor="#e58139"] ;
459 -> 460 ;
461 [label="gini = 0.0\nsamples = 1\nvalue = [0, 1]", fillcolor="#399de5"] ;
459 -> 461 ;
462 [label="gini = 0.0\nsamples = 1\nvalue = [0, 1]", fillcolor="#399de5"] ;
458 -> 462 ;
463 [label="gini = 0.0\nsamples = 1\nvalue = [1, 0]", fillcolor="#e58139"] ;
457 -> 463 ;
464 [label="gini = 0.0\nsamples = 1\nvalue = [1, 0]", fillcolor="#e58139"] ;
456 -> 464 ;
465 [label="gini = 0.0\nsamples = 2\nvalue = [0, 2]", fillcolor="#399de5"] ;
417 -> 465 ;
466 [label="8 <= 0.5\ngini = 0.478\nsamples = 402\nvalue = [243, 159]", fillcolor="#f6d3bb"] ;
416 -> 466 ;
467 [label="21 <= 0.5\ngini = 0.489\nsamples = 356\nvalue = [204, 152]", fillcolor="#f8dfcd"] ;
466 -> 467 ;
468 [label="2 <= 0.5\ngini = 0.498\nsamples = 137\nvalue = [64, 73]", fillcolor="#e7f3fc"] ;
467 -> 468 ;
469 [label="24 <= 0.5\ngini = 0.5\nsamples = 129\nvalue = [63, 66]", fillcolor="#f6fbfe"] ;
468 -> 469 ;
470 [label="10 <= 0.5\ngini = 0.444\nsamples = 18\nvalue = [6, 12]", fillcolor="#9ccef2"] ;
469 -> 470 ;
471 [label="4 <= 0.5\ngini = 0.415\nsamples = 17\nvalue = [5, 12]", fillcolor="#8bc6f0"] ;
470 -> 471 ;
472 [label="22 <= 0.5\ngini = 0.375\nsamples = 16\nvalue = [4, 12]", fillcolor="#7bbeee"] ;
471 -> 472 ;
473 [label="20 <= 0.5\ngini = 0.337\nsamples = 14\nvalue = [3, 11]", fillcolor="#6fb8ec"] ;
472 -> 473 ;
474 [label="gini = 0.0\nsamples = 2\nvalue = [0, 2]", fillcolor="#399de5"] ;
473 -> 474 ;
475 [label="5 <= 0.5\ngini = 0.375\nsamples = 12\nvalue = [3, 9]", fillcolor="#7bbeee"] ;
473 -> 475 ;
476 [label="gini = 0.0\nsamples = 1\nvalue = [0, 1]", fillcolor="#399de5"] ;
475 -> 476 ;
477 [label="3 <= 0.5\ngini = 0.397\nsamples = 11\nvalue = [3, 8]", fillcolor="#83c2ef"] ;
475 -> 477 ;
478 [label="gini = 0.0\nsamples = 1\nvalue = [0, 1]", fillcolor="#399de5"] ;
477 -> 478 ;
479 [label="13 <= 0.5\ngini = 0.42\nsamples = 10\nvalue = [3, 7]", fillcolor="#8ec7f0"] ;
477 -> 479 ;
480 [label="gini = 0.444\nsamples = 3\nvalue = [1, 2]", fillcolor="#9ccef2"] ;
479 -> 480 ;
481 [label="gini = 0.408\nsamples = 7\nvalue = [2, 5]", fillcolor="#88c4ef"] ;
479 -> 481 ;
482 [label="gini = 0.5\nsamples = 2\nvalue = [1, 1]", fillcolor="#ffffff"] ;
472 -> 482 ;
483 [label="gini = 0.0\nsamples = 1\nvalue = [1, 0]", fillcolor="#e58139"] ;
471 -> 483 ;
484 [label="gini = 0.0\nsamples = 1\nvalue = [1, 0]", fillcolor="#e58139"] ;
470 -> 484 ;
485 [label="9 <= 0.5\ngini = 0.5\nsamples = 111\nvalue = [57, 54]", fillcolor="#fef8f5"] ;
469 -> 485 ;
486 [label="3 <= 0.5\ngini = 0.484\nsamples = 51\nvalue = [21, 30]", fillcolor="#c4e2f7"] ;
485 -> 486 ;
487 [label="5 <= 0.5\ngini = 0.375\nsamples = 4\nvalue = [3, 1]", fillcolor="#eeab7b"] ;
486 -> 487 ;
488 [label="gini = 0.0\nsamples = 2\nvalue = [2, 0]", fillcolor="#e58139"] ;
487 -> 488 ;
489 [label="22 <= 0.5\ngini = 0.5\nsamples = 2\nvalue = [1, 1]", fillcolor="#ffffff"] ;
487 -> 489 ;
490 [label="gini = 0.0\nsamples = 1\nvalue = [1, 0]", fillcolor="#e58139"] ;
489 -> 490 ;
491 [label="gini = 0.0\nsamples = 1\nvalue = [0, 1]", fillcolor="#399de5"] ;
489 -> 491 ;
492 [label="6 <= 0.5\ngini = 0.473\nsamples = 47\nvalue = [18, 29]", fillcolor="#b4daf5"] ;
486 -> 492 ;
493 [label="11 <= 0.5\ngini = 0.497\nsamples = 28\nvalue = [13, 15]", fillcolor="#e5f2fc"] ;
492 -> 493 ;
494 [label="23 <= 0.5\ngini = 0.499\nsamples = 25\nvalue = [13, 12]", fillcolor="#fdf5f0"] ;
493 -> 494 ;
495 [label="gini = 0.0\nsamples = 1\nvalue = [1, 0]", fillcolor="#e58139"] ;
494 -> 495 ;
496 [label="14 <= 0.5\ngini = 0.5\nsamples = 24\nvalue = [12, 12]", fillcolor="#ffffff"] ;
494 -> 496 ;
497 [label="13 <= 0.5\ngini = 0.499\nsamples = 21\nvalue = [11, 10]", fillcolor="#fdf4ed"] ;
496 -> 497 ;
498 [label="22 <= 0.5\ngini = 0.48\nsamples = 5\nvalue = [3, 2]", fillcolor="#f6d5bd"] ;
497 -> 498 ;
499 [label="gini = 0.0\nsamples = 2\nvalue = [2, 0]", fillcolor="#e58139"] ;
498 -> 499 ;
500 [label="gini = 0.444\nsamples = 3\nvalue = [1, 2]", fillcolor="#9ccef2"] ;
498 -> 500 ;
501 [label="22 <= 0.5\ngini = 0.5\nsamples = 16\nvalue = [8, 8]", fillcolor="#ffffff"] ;
497 -> 501 ;
502 [label="4 <= 0.5\ngini = 0.486\nsamples = 12\nvalue = [5, 7]", fillcolor="#c6e3f8"] ;
501 -> 502 ;
503 [label="20 <= 0.5\ngini = 0.496\nsamples = 11\nvalue = [5, 6]", fillcolor="#deeffb"] ;
502 -> 503 ;
504 [label="gini = 0.469\nsamples = 8\nvalue = [3, 5]", fillcolor="#b0d8f5"] ;
503 -> 504 ;
505 [label="gini = 0.444\nsamples = 3\nvalue = [2, 1]", fillcolor="#f2c09c"] ;
503 -> 505 ;
506 [label="gini = 0.0\nsamples = 1\nvalue = [0, 1]", fillcolor="#399de5"] ;
502 -> 506 ;
507 [label="5 <= 0.5\ngini = 0.375\nsamples = 4\nvalue = [3, 1]", fillcolor="#eeab7b"] ;
501 -> 507 ;
508 [label="gini = 0.0\nsamples = 1\nvalue = [1, 0]", fillcolor="#e58139"] ;
507 -> 508 ;
509 [label="gini = 0.444\nsamples = 3\nvalue = [2, 1]", fillcolor="#f2c09c"] ;
507 -> 509 ;
510 [label="22 <= 0.5\ngini = 0.444\nsamples = 3\nvalue = [1, 2]", fillcolor="#9ccef2"] ;
496 -> 510 ;
511 [label="gini = 0.5\nsamples = 2\nvalue = [1, 1]", fillcolor="#ffffff"] ;
510 -> 511 ;
512 [label="gini = 0.0\nsamples = 1\nvalue = [0, 1]", fillcolor="#399de5"] ;
510 -> 512 ;
513 [label="gini = 0.0\nsamples = 3\nvalue = [0, 3]", fillcolor="#399de5"] ;
493 -> 513 ;
514 [label="20 <= 0.5\ngini = 0.388\nsamples = 19\nvalue = [5, 14]", fillcolor="#80c0ee"] ;
492 -> 514 ;
515 [label="11 <= 0.5\ngini = 0.43\nsamples = 16\nvalue = [5, 11]", fillcolor="#93caf1"] ;
514 -> 515 ;
516 [label="14 <= 0.5\ngini = 0.391\nsamples = 15\nvalue = [4, 11]", fillcolor="#81c1ee"] ;
515 -> 516 ;
517 [label="22 <= 0.5\ngini = 0.426\nsamples = 13\nvalue = [4, 9]", fillcolor="#91c9f1"] ;
516 -> 517 ;
518 [label="13 <= 0.5\ngini = 0.49\nsamples = 7\nvalue = [3, 4]", fillcolor="#cee6f8"] ;
517 -> 518 ;
519 [label="gini = 0.444\nsamples = 3\nvalue = [1, 2]", fillcolor="#9ccef2"] ;
518 -> 519 ;
520 [label="gini = 0.5\nsamples = 4\nvalue = [2, 2]", fillcolor="#ffffff"] ;
518 -> 520 ;
521 [label="gini = 0.278\nsamples = 6\nvalue = [1, 5]", fillcolor="#61b1ea"] ;
517 -> 521 ;
522 [label="gini = 0.0\nsamples = 2\nvalue = [0, 2]", fillcolor="#399de5"] ;
516 -> 522 ;
523 [label="gini = 0.0\nsamples = 1\nvalue = [1, 0]", fillcolor="#e58139"] ;
515 -> 523 ;
524 [label="gini = 0.0\nsamples = 3\nvalue = [0, 3]", fillcolor="#399de5"] ;
514 -> 524 ;
525 [label="22 <= 0.5\ngini = 0.48\nsamples = 60\nvalue = [36, 24]", fillcolor="#f6d5bd"] ;
485 -> 525 ;
526 [label="3 <= 0.5\ngini = 0.496\nsamples = 46\nvalue = [25, 21]", fillcolor="#fbebdf"] ;
525 -> 526 ;
527 [label="gini = 0.0\nsamples = 2\nvalue = [2, 0]", fillcolor="#e58139"] ;
526 -> 527 ;
528 [label="7 <= 0.5\ngini = 0.499\nsamples = 44\nvalue = [23, 21]", fillcolor="#fdf4ee"] ;
526 -> 528 ;
529 [label="0 <= 0.467\ngini = 0.498\nsamples = 43\nvalue = [23, 20]", fillcolor="#fcefe5"] ;
528 -> 529 ;
530 [label="gini = 0.0\nsamples = 1\nvalue = [0, 1]", fillcolor="#399de5"] ;
529 -> 530 ;
531 [label="20 <= 0.5\ngini = 0.495\nsamples = 42\nvalue = [23, 19]", fillcolor="#fae9dd"] ;
529 -> 531 ;
532 [label="23 <= 0.5\ngini = 0.5\nsamples = 12\nvalue = [6, 6]", fillcolor="#ffffff"] ;
531 -> 532 ;
533 [label="gini = 0.0\nsamples = 1\nvalue = [1, 0]", fillcolor="#e58139"] ;
532 -> 533 ;
534 [label="6 <= 0.5\ngini = 0.496\nsamples = 11\nvalue = [5, 6]", fillcolor="#deeffb"] ;
532 -> 534 ;
535 [label="13 <= 0.5\ngini = 0.48\nsamples = 5\nvalue = [3, 2]", fillcolor="#f6d5bd"] ;
534 -> 535 ;
536 [label="gini = 0.0\nsamples = 1\nvalue = [1, 0]", fillcolor="#e58139"] ;
535 -> 536 ;
537 [label="gini = 0.5\nsamples = 4\nvalue = [2, 2]", fillcolor="#ffffff"] ;
535 -> 537 ;
538 [label="11 <= 0.5\ngini = 0.444\nsamples = 6\nvalue = [2, 4]", fillcolor="#9ccef2"] ;
534 -> 538 ;
539 [label="13 <= 0.5\ngini = 0.375\nsamples = 4\nvalue = [1, 3]", fillcolor="#7bbeee"] ;
538 -> 539 ;
540 [label="gini = 0.0\nsamples = 1\nvalue = [0, 1]", fillcolor="#399de5"] ;
539 -> 540 ;
541 [label="gini = 0.444\nsamples = 3\nvalue = [1, 2]", fillcolor="#9ccef2"] ;
539 -> 541 ;
542 [label="gini = 0.5\nsamples = 2\nvalue = [1, 1]", fillcolor="#ffffff"] ;
538 -> 542 ;
543 [label="6 <= 0.5\ngini = 0.491\nsamples = 30\nvalue = [17, 13]", fillcolor="#f9e1d0"] ;
531 -> 543 ;
544 [label="23 <= 0.5\ngini = 0.498\nsamples = 17\nvalue = [9, 8]", fillcolor="#fcf1e9"] ;
543 -> 544 ;
545 [label="13 <= 0.5\ngini = 0.444\nsamples = 6\nvalue = [4, 2]", fillcolor="#f2c09c"] ;
544 -> 545 ;
546 [label="gini = 0.0\nsamples = 2\nvalue = [2, 0]", fillcolor="#e58139"] ;
545 -> 546 ;
547 [label="gini = 0.5\nsamples = 4\nvalue = [2, 2]", fillcolor="#ffffff"] ;
545 -> 547 ;
548 [label="13 <= 0.5\ngini = 0.496\nsamples = 11\nvalue = [5, 6]", fillcolor="#deeffb"] ;
544 -> 548 ;
549 [label="gini = 0.444\nsamples = 6\nvalue = [2, 4]", fillcolor="#9ccef2"] ;
548 -> 549 ;
550 [label="gini = 0.48\nsamples = 5\nvalue = [3, 2]", fillcolor="#f6d5bd"] ;
548 -> 550 ;
551 [label="23 <= 0.5\ngini = 0.473\nsamples = 13\nvalue = [8, 5]", fillcolor="#f5d0b5"] ;
543 -> 551 ;
552 [label="gini = 0.444\nsamples = 3\nvalue = [1, 2]", fillcolor="#9ccef2"] ;
551 -> 552 ;
553 [label="13 <= 0.5\ngini = 0.42\nsamples = 10\nvalue = [7, 3]", fillcolor="#f0b78e"] ;
551 -> 553 ;
554 [label="gini = 0.0\nsamples = 2\nvalue = [2, 0]", fillcolor="#e58139"] ;
553 -> 554 ;
555 [label="gini = 0.469\nsamples = 8\nvalue = [5, 3]", fillcolor="#f5cdb0"] ;
553 -> 555 ;
556 [label="gini = 0.0\nsamples = 1\nvalue = [0, 1]", fillcolor="#399de5"] ;
528 -> 556 ;
557 [label="3 <= 0.5\ngini = 0.337\nsamples = 14\nvalue = [11, 3]", fillcolor="#eca36f"] ;
525 -> 557 ;
558 [label="gini = 0.0\nsamples = 2\nvalue = [0, 2]", fillcolor="#399de5"] ;
557 -> 558 ;
559 [label="6 <= 0.5\ngini = 0.153\nsamples = 12\nvalue = [11, 1]", fillcolor="#e78c4b"] ;
557 -> 559 ;
560 [label="gini = 0.0\nsamples = 6\nvalue = [6, 0]", fillcolor="#e58139"] ;
559 -> 560 ;
561 [label="0 <= 0.467\ngini = 0.278\nsamples = 6\nvalue = [5, 1]", fillcolor="#ea9a61"] ;
559 -> 561 ;
562 [label="gini = 0.0\nsamples = 1\nvalue = [1, 0]", fillcolor="#e58139"] ;
561 -> 562 ;
563 [label="gini = 0.32\nsamples = 5\nvalue = [4, 1]", fillcolor="#eca06a"] ;
561 -> 563 ;
564 [label="7 <= 0.5\ngini = 0.219\nsamples = 8\nvalue = [1, 7]", fillcolor="#55abe9"] ;
468 -> 564 ;
565 [label="gini = 0.0\nsamples = 7\nvalue = [0, 7]", fillcolor="#399de5"] ;
564 -> 565 ;
566 [label="gini = 0.0\nsamples = 1\nvalue = [1, 0]", fillcolor="#e58139"] ;
564 -> 566 ;
567 [label="6 <= 0.5\ngini = 0.461\nsamples = 219\nvalue = [140, 79]", fillcolor="#f4c8a9"] ;
467 -> 567 ;
568 [label="23 <= 0.5\ngini = 0.427\nsamples = 152\nvalue = [105, 47]", fillcolor="#f1b992"] ;
567 -> 568 ;
569 [label="gini = 0.0\nsamples = 12\nvalue = [12, 0]", fillcolor="#e58139"] ;
568 -> 569 ;
570 [label="3 <= 0.5\ngini = 0.446\nsamples = 140\nvalue = [93, 47]", fillcolor="#f2c19d"] ;
568 -> 570 ;
571 [label="gini = 0.0\nsamples = 6\nvalue = [6, 0]", fillcolor="#e58139"] ;
570 -> 571 ;
572 [label="5 <= 0.5\ngini = 0.455\nsamples = 134\nvalue = [87, 47]", fillcolor="#f3c5a4"] ;
570 -> 572 ;
573 [label="24 <= 0.5\ngini = 0.291\nsamples = 17\nvalue = [14, 3]", fillcolor="#eb9c63"] ;
572 -> 573 ;
574 [label="gini = 0.0\nsamples = 1\nvalue = [0, 1]", fillcolor="#399de5"] ;
573 -> 574 ;
575 [label="9 <= 0.5\ngini = 0.219\nsamples = 16\nvalue = [14, 2]", fillcolor="#e99355"] ;
573 -> 575 ;
576 [label="13 <= 0.5\ngini = 0.444\nsamples = 6\nvalue = [4, 2]", fillcolor="#f2c09c"] ;
575 -> 576 ;
577 [label="gini = 0.0\nsamples = 2\nvalue = [2, 0]", fillcolor="#e58139"] ;
576 -> 577 ;
578 [label="0 <= 0.467\ngini = 0.5\nsamples = 4\nvalue = [2, 2]", fillcolor="#ffffff"] ;
576 -> 578 ;
579 [label="gini = 0.5\nsamples = 2\nvalue = [1, 1]", fillcolor="#ffffff"] ;
578 -> 579 ;
580 [label="gini = 0.5\nsamples = 2\nvalue = [1, 1]", fillcolor="#ffffff"] ;
578 -> 580 ;
581 [label="gini = 0.0\nsamples = 10\nvalue = [10, 0]", fillcolor="#e58139"] ;
575 -> 581 ;
582 [label="2 <= 0.5\ngini = 0.469\nsamples = 117\nvalue = [73, 44]", fillcolor="#f5cdb0"] ;
572 -> 582 ;
583 [label="0 <= 0.5\ngini = 0.467\nsamples = 116\nvalue = [73, 43]", fillcolor="#f4cbae"] ;
582 -> 583 ;
584 [label="14 <= 0.5\ngini = 0.355\nsamples = 13\nvalue = [10, 3]", fillcolor="#eda774"] ;
583 -> 584 ;
585 [label="10 <= 0.5\ngini = 0.278\nsamples = 12\nvalue = [10, 2]", fillcolor="#ea9a61"] ;
584 -> 585 ;
586 [label="gini = 0.0\nsamples = 6\nvalue = [6, 0]", fillcolor="#e58139"] ;
585 -> 586 ;
587 [label="13 <= 0.5\ngini = 0.444\nsamples = 6\nvalue = [4, 2]", fillcolor="#f2c09c"] ;
585 -> 587 ;
588 [label="gini = 0.0\nsamples = 2\nvalue = [2, 0]", fillcolor="#e58139"] ;
587 -> 588 ;
589 [label="0 <= 0.433\ngini = 0.5\nsamples = 4\nvalue = [2, 2]", fillcolor="#ffffff"] ;
587 -> 589 ;
590 [label="gini = 0.444\nsamples = 3\nvalue = [1, 2]", fillcolor="#9ccef2"] ;
589 -> 590 ;
591 [label="gini = 0.0\nsamples = 1\nvalue = [1, 0]", fillcolor="#e58139"] ;
589 -> 591 ;
592 [label="gini = 0.0\nsamples = 1\nvalue = [0, 1]", fillcolor="#399de5"] ;
584 -> 592 ;
593 [label="24 <= 0.5\ngini = 0.475\nsamples = 103\nvalue = [63, 40]", fillcolor="#f6d1b7"] ;
583 -> 593 ;
594 [label="gini = 0.0\nsamples = 2\nvalue = [2, 0]", fillcolor="#e58139"] ;
593 -> 594 ;
595 [label="14 <= 0.5\ngini = 0.478\nsamples = 101\nvalue = [61, 40]", fillcolor="#f6d4bb"] ;
593 -> 595 ;
596 [label="11 <= 0.5\ngini = 0.48\nsamples = 100\nvalue = [60, 40]", fillcolor="#f6d5bd"] ;
595 -> 596 ;
597 [label="13 <= 0.5\ngini = 0.477\nsamples = 94\nvalue = [57, 37]", fillcolor="#f6d3ba"] ;
596 -> 597 ;
598 [label="10 <= 0.5\ngini = 0.49\nsamples = 7\nvalue = [4, 3]", fillcolor="#f8e0ce"] ;
597 -> 598 ;
599 [label="gini = 0.0\nsamples = 1\nvalue = [0, 1]", fillcolor="#399de5"] ;
598 -> 599 ;
600 [label="gini = 0.444\nsamples = 6\nvalue = [4, 2]", fillcolor="#f2c09c"] ;
598 -> 600 ;
601 [label="9 <= 0.5\ngini = 0.476\nsamples = 87\nvalue = [53, 34]", fillcolor="#f6d2b8"] ;
597 -> 601 ;
602 [label="gini = 0.484\nsamples = 34\nvalue = [20, 14]", fillcolor="#f7d9c4"] ;
601 -> 602 ;
603 [label="gini = 0.47\nsamples = 53\nvalue = [33, 20]", fillcolor="#f5cdb1"] ;
601 -> 603 ;
604 [label="10 <= 0.5\ngini = 0.5\nsamples = 6\nvalue = [3, 3]", fillcolor="#ffffff"] ;
596 -> 604 ;
605 [label="gini = 0.5\nsamples = 2\nvalue = [1, 1]", fillcolor="#ffffff"] ;
604 -> 605 ;
606 [label="gini = 0.5\nsamples = 4\nvalue = [2, 2]", fillcolor="#ffffff"] ;
604 -> 606 ;
607 [label="gini = 0.0\nsamples = 1\nvalue = [1, 0]", fillcolor="#e58139"] ;
595 -> 607 ;
608 [label="gini = 0.0\nsamples = 1\nvalue = [0, 1]", fillcolor="#399de5"] ;
582 -> 608 ;
609 [label="11 <= 0.5\ngini = 0.499\nsamples = 67\nvalue = [35, 32]", fillcolor="#fdf4ee"] ;
567 -> 609 ;
610 [label="23 <= 0.5\ngini = 0.499\nsamples = 60\nvalue = [29, 31]", fillcolor="#f2f9fd"] ;
609 -> 610 ;
611 [label="gini = 0.0\nsamples = 3\nvalue = [0, 3]", fillcolor="#399de5"] ;
610 -> 611 ;
612 [label="14 <= 0.5\ngini = 0.5\nsamples = 57\nvalue = [29, 28]", fillcolor="#fefbf8"] ;
610 -> 612 ;
613 [label="0 <= 0.467\ngini = 0.499\nsamples = 56\nvalue = [29, 27]", fillcolor="#fdf6f1"] ;
612 -> 613 ;
614 [label="gini = 0.0\nsamples = 1\nvalue = [0, 1]", fillcolor="#399de5"] ;
613 -> 614 ;
615 [label="3 <= 0.5\ngini = 0.499\nsamples = 55\nvalue = [29, 26]", fillcolor="#fcf2eb"] ;
613 -> 615 ;
616 [label="gini = 0.0\nsamples = 1\nvalue = [1, 0]", fillcolor="#e58139"] ;
615 -> 616 ;
617 [label="24 <= 0.5\ngini = 0.499\nsamples = 54\nvalue = [28, 26]", fillcolor="#fdf6f1"] ;
615 -> 617 ;
618 [label="gini = 0.0\nsamples = 1\nvalue = [0, 1]", fillcolor="#399de5"] ;
617 -> 618 ;
619 [label="2 <= 0.5\ngini = 0.498\nsamples = 53\nvalue = [28, 25]", fillcolor="#fcf2ea"] ;
617 -> 619 ;
620 [label="10 <= 0.5\ngini = 0.497\nsamples = 50\nvalue = [27, 23]", fillcolor="#fbece2"] ;
619 -> 620 ;
621 [label="gini = 0.499\nsamples = 23\nvalue = [11, 12]", fillcolor="#eff7fd"] ;
620 -> 621 ;
622 [label="13 <= 0.5\ngini = 0.483\nsamples = 27\nvalue = [16, 11]", fillcolor="#f7d8c1"] ;
620 -> 622 ;
623 [label="gini = 0.469\nsamples = 8\nvalue = [5, 3]", fillcolor="#f5cdb0"] ;
622 -> 623 ;
624 [label="gini = 0.488\nsamples = 19\nvalue = [11, 8]", fillcolor="#f8ddc9"] ;
622 -> 624 ;
625 [label="10 <= 0.5\ngini = 0.444\nsamples = 3\nvalue = [1, 2]", fillcolor="#9ccef2"] ;
619 -> 625 ;
626 [label="gini = 0.5\nsamples = 2\nvalue = [1, 1]", fillcolor="#ffffff"] ;
625 -> 626 ;
627 [label="gini = 0.0\nsamples = 1\nvalue = [0, 1]", fillcolor="#399de5"] ;
625 -> 627 ;
628 [label="gini = 0.0\nsamples = 1\nvalue = [0, 1]", fillcolor="#399de5"] ;
612 -> 628 ;
629 [label="9 <= 0.5\ngini = 0.245\nsamples = 7\nvalue = [6, 1]", fillcolor="#e9965a"] ;
609 -> 629 ;
630 [label="gini = 0.0\nsamples = 3\nvalue = [3, 0]", fillcolor="#e58139"] ;
629 -> 630 ;
631 [label="gini = 0.375\nsamples = 4\nvalue = [3, 1]", fillcolor="#eeab7b"] ;
629 -> 631 ;
632 [label="11 <= 0.5\ngini = 0.258\nsamples = 46\nvalue = [39, 7]", fillcolor="#ea985d"] ;
466 -> 632 ;
633 [label="14 <= 0.5\ngini = 0.206\nsamples = 43\nvalue = [38, 5]", fillcolor="#e89253"] ;
632 -> 633 ;
634 [label="21 <= 0.5\ngini = 0.139\nsamples = 40\nvalue = [37, 3]", fillcolor="#e78b49"] ;
633 -> 634 ;
635 [label="7 <= 0.5\ngini = 0.227\nsamples = 23\nvalue = [20, 3]", fillcolor="#e99457"] ;
634 -> 635 ;
636 [label="24 <= 0.5\ngini = 0.255\nsamples = 20\nvalue = [17, 3]", fillcolor="#ea975c"] ;
635 -> 636 ;
637 [label="6 <= 0.5\ngini = 0.165\nsamples = 11\nvalue = [10, 1]", fillcolor="#e88e4d"] ;
636 -> 637 ;
638 [label="gini = 0.0\nsamples = 6\nvalue = [6, 0]", fillcolor="#e58139"] ;
637 -> 638 ;
639 [label="22 <= 0.5\ngini = 0.32\nsamples = 5\nvalue = [4, 1]", fillcolor="#eca06a"] ;
637 -> 639 ;
640 [label="3 <= 0.5\ngini = 0.444\nsamples = 3\nvalue = [2, 1]", fillcolor="#f2c09c"] ;
639 -> 640 ;
641 [label="gini = 0.0\nsamples = 1\nvalue = [1, 0]", fillcolor="#e58139"] ;
640 -> 641 ;
642 [label="gini = 0.5\nsamples = 2\nvalue = [1, 1]", fillcolor="#ffffff"] ;
640 -> 642 ;
643 [label="gini = 0.0\nsamples = 2\nvalue = [2, 0]", fillcolor="#e58139"] ;
639 -> 643 ;
644 [label="22 <= 0.5\ngini = 0.346\nsamples = 9\nvalue = [7, 2]", fillcolor="#eca572"] ;
636 -> 644 ;
645 [label="13 <= 0.5\ngini = 0.245\nsamples = 7\nvalue = [6, 1]", fillcolor="#e9965a"] ;
644 -> 645 ;
646 [label="5 <= 0.5\ngini = 0.444\nsamples = 3\nvalue = [2, 1]", fillcolor="#f2c09c"] ;
645 -> 646 ;
647 [label="20 <= 0.5\ngini = 0.5\nsamples = 2\nvalue = [1, 1]", fillcolor="#ffffff"] ;
646 -> 647 ;
648 [label="gini = 0.0\nsamples = 1\nvalue = [1, 0]", fillcolor="#e58139"] ;
647 -> 648 ;
649 [label="gini = 0.0\nsamples = 1\nvalue = [0, 1]", fillcolor="#399de5"] ;
647 -> 649 ;
650 [label="gini = 0.0\nsamples = 1\nvalue = [1, 0]", fillcolor="#e58139"] ;
646 -> 650 ;
651 [label="gini = 0.0\nsamples = 4\nvalue = [4, 0]", fillcolor="#e58139"] ;
645 -> 651 ;
652 [label="5 <= 0.5\ngini = 0.5\nsamples = 2\nvalue = [1, 1]", fillcolor="#ffffff"] ;
644 -> 652 ;
653 [label="gini = 0.0\nsamples = 1\nvalue = [1, 0]", fillcolor="#e58139"] ;
652 -> 653 ;
654 [label="gini = 0.0\nsamples = 1\nvalue = [0, 1]", fillcolor="#399de5"] ;
652 -> 654 ;
655 [label="gini = 0.0\nsamples = 3\nvalue = [3, 0]", fillcolor="#e58139"] ;
635 -> 655 ;
656 [label="gini = 0.0\nsamples = 17\nvalue = [17, 0]", fillcolor="#e58139"] ;
634 -> 656 ;
657 [label="7 <= 0.5\ngini = 0.444\nsamples = 3\nvalue = [1, 2]", fillcolor="#9ccef2"] ;
633 -> 657 ;
658 [label="gini = 0.0\nsamples = 2\nvalue = [0, 2]", fillcolor="#399de5"] ;
657 -> 658 ;
659 [label="gini = 0.0\nsamples = 1\nvalue = [1, 0]", fillcolor="#e58139"] ;
657 -> 659 ;
660 [label="24 <= 0.5\ngini = 0.444\nsamples = 3\nvalue = [1, 2]", fillcolor="#9ccef2"] ;
632 -> 660 ;
661 [label="gini = 0.0\nsamples = 2\nvalue = [0, 2]", fillcolor="#399de5"] ;
660 -> 661 ;
662 [label="gini = 0.0\nsamples = 1\nvalue = [1, 0]", fillcolor="#e58139"] ;
660 -> 662 ;
663 [label="4 <= 0.5\ngini = 0.4\nsamples = 65\nvalue = [18, 47]", fillcolor="#85c3ef"] ;
415 -> 663 ;
664 [label="3 <= 0.5\ngini = 0.379\nsamples = 63\nvalue = [16, 47]", fillcolor="#7cbeee"] ;
663 -> 664 ;
665 [label="10 <= 0.5\ngini = 0.375\nsamples = 4\nvalue = [3, 1]", fillcolor="#eeab7b"] ;
664 -> 665 ;
666 [label="gini = 0.0\nsamples = 3\nvalue = [3, 0]", fillcolor="#e58139"] ;
665 -> 666 ;
667 [label="gini = 0.0\nsamples = 1\nvalue = [0, 1]", fillcolor="#399de5"] ;
665 -> 667 ;
668 [label="21 <= 0.5\ngini = 0.344\nsamples = 59\nvalue = [13, 46]", fillcolor="#71b9ec"] ;
664 -> 668 ;
669 [label="20 <= 0.5\ngini = 0.204\nsamples = 26\nvalue = [3, 23]", fillcolor="#53aae8"] ;
668 -> 669 ;
670 [label="gini = 0.0\nsamples = 16\nvalue = [0, 16]", fillcolor="#399de5"] ;
669 -> 670 ;
671 [label="24 <= 0.5\ngini = 0.42\nsamples = 10\nvalue = [3, 7]", fillcolor="#8ec7f0"] ;
669 -> 671 ;
672 [label="gini = 0.0\nsamples = 4\nvalue = [0, 4]", fillcolor="#399de5"] ;
671 -> 672 ;
673 [label="23 <= 0.5\ngini = 0.5\nsamples = 6\nvalue = [3, 3]", fillcolor="#ffffff"] ;
671 -> 673 ;
674 [label="gini = 0.0\nsamples = 3\nvalue = [0, 3]", fillcolor="#399de5"] ;
673 -> 674 ;
675 [label="gini = 0.0\nsamples = 3\nvalue = [3, 0]", fillcolor="#e58139"] ;
673 -> 675 ;
676 [label="23 <= 0.5\ngini = 0.422\nsamples = 33\nvalue = [10, 23]", fillcolor="#8fc8f0"] ;
668 -> 676 ;
677 [label="gini = 0.0\nsamples = 3\nvalue = [3, 0]", fillcolor="#e58139"] ;
676 -> 677 ;
678 [label="8 <= 0.5\ngini = 0.358\nsamples = 30\nvalue = [7, 23]", fillcolor="#75bbed"] ;
676 -> 678 ;
679 [label="5 <= 0.5\ngini = 0.328\nsamples = 29\nvalue = [6, 23]", fillcolor="#6db7ec"] ;
678 -> 679 ;
680 [label="13 <= 0.5\ngini = 0.18\nsamples = 10\nvalue = [1, 9]", fillcolor="#4fa8e8"] ;
679 -> 680 ;
681 [label="gini = 0.0\nsamples = 5\nvalue = [0, 5]", fillcolor="#399de5"] ;
680 -> 681 ;
682 [label="gini = 0.32\nsamples = 5\nvalue = [1, 4]", fillcolor="#6ab6ec"] ;
680 -> 682 ;
683 [label="0 <= 0.367\ngini = 0.388\nsamples = 19\nvalue = [5, 14]", fillcolor="#80c0ee"] ;
679 -> 683 ;
684 [label="0 <= 0.267\ngini = 0.5\nsamples = 2\nvalue = [1, 1]", fillcolor="#ffffff"] ;
683 -> 684 ;
685 [label="gini = 0.0\nsamples = 1\nvalue = [0, 1]", fillcolor="#399de5"] ;
684 -> 685 ;
686 [label="gini = 0.0\nsamples = 1\nvalue = [1, 0]", fillcolor="#e58139"] ;
684 -> 686 ;
687 [label="0 <= 0.467\ngini = 0.36\nsamples = 17\nvalue = [4, 13]", fillcolor="#76bbed"] ;
683 -> 687 ;
688 [label="gini = 0.0\nsamples = 2\nvalue = [0, 2]", fillcolor="#399de5"] ;
687 -> 688 ;
689 [label="24 <= 0.5\ngini = 0.391\nsamples = 15\nvalue = [4, 11]", fillcolor="#81c1ee"] ;
687 -> 689 ;
690 [label="gini = 0.0\nsamples = 1\nvalue = [0, 1]", fillcolor="#399de5"] ;
689 -> 690 ;
691 [label="10 <= 0.5\ngini = 0.408\nsamples = 14\nvalue = [4, 10]", fillcolor="#88c4ef"] ;
689 -> 691 ;
692 [label="13 <= 0.5\ngini = 0.375\nsamples = 8\nvalue = [2, 6]", fillcolor="#7bbeee"] ;
691 -> 692 ;
693 [label="gini = 0.0\nsamples = 1\nvalue = [0, 1]", fillcolor="#399de5"] ;
692 -> 693 ;
694 [label="gini = 0.408\nsamples = 7\nvalue = [2, 5]", fillcolor="#88c4ef"] ;
692 -> 694 ;
695 [label="13 <= 0.5\ngini = 0.444\nsamples = 6\nvalue = [2, 4]", fillcolor="#9ccef2"] ;
691 -> 695 ;
696 [label="gini = 0.5\nsamples = 2\nvalue = [1, 1]", fillcolor="#ffffff"] ;
695 -> 696 ;
697 [label="gini = 0.375\nsamples = 4\nvalue = [1, 3]", fillcolor="#7bbeee"] ;
695 -> 697 ;
698 [label="gini = 0.0\nsamples = 1\nvalue = [1, 0]", fillcolor="#e58139"] ;
678 -> 698 ;
699 [label="gini = 0.0\nsamples = 2\nvalue = [2, 0]", fillcolor="#e58139"] ;
663 -> 699 ;
700 [label="21 <= 0.5\ngini = 0.374\nsamples = 857\nvalue = [213, 644]", fillcolor="#7abdee"] ;
414 -> 700 ;
701 [label="1 <= 0.5\ngini = 0.318\nsamples = 707\nvalue = [140, 567]", fillcolor="#6ab5eb"] ;
700 -> 701 ;
702 [label="0 <= 0.767\ngini = 0.357\nsamples = 575\nvalue = [134, 441]", fillcolor="#75bbed"] ;
701 -> 702 ;
703 [label="4 <= 0.5\ngini = 0.446\nsamples = 209\nvalue = [70, 139]", fillcolor="#9dcef2"] ;
702 -> 703 ;
704 [label="24 <= 0.5\ngini = 0.43\nsamples = 198\nvalue = [62, 136]", fillcolor="#93caf1"] ;
703 -> 704 ;
705 [label="20 <= 0.5\ngini = 0.302\nsamples = 27\nvalue = [5, 22]", fillcolor="#66b3eb"] ;
704 -> 705 ;
706 [label="gini = 0.0\nsamples = 13\nvalue = [0, 13]", fillcolor="#399de5"] ;
705 -> 706 ;
707 [label="13 <= 0.5\ngini = 0.459\nsamples = 14\nvalue = [5, 9]", fillcolor="#a7d3f3"] ;
705 -> 707 ;
708 [label="gini = 0.0\nsamples = 3\nvalue = [0, 3]", fillcolor="#399de5"] ;
707 -> 708 ;
709 [label="23 <= 0.5\ngini = 0.496\nsamples = 11\nvalue = [5, 6]", fillcolor="#deeffb"] ;
707 -> 709 ;
710 [label="gini = 0.0\nsamples = 1\nvalue = [1, 0]", fillcolor="#e58139"] ;
709 -> 710 ;
711 [label="0 <= 0.633\ngini = 0.48\nsamples = 10\nvalue = [4, 6]", fillcolor="#bddef6"] ;
709 -> 711 ;
712 [label="3 <= 0.5\ngini = 0.48\nsamples = 5\nvalue = [3, 2]", fillcolor="#f6d5bd"] ;
711 -> 712 ;
713 [label="gini = 0.0\nsamples = 1\nvalue = [0, 1]", fillcolor="#399de5"] ;
712 -> 713 ;
714 [label="5 <= 0.5\ngini = 0.375\nsamples = 4\nvalue = [3, 1]", fillcolor="#eeab7b"] ;
712 -> 714 ;
715 [label="gini = 0.0\nsamples = 1\nvalue = [1, 0]", fillcolor="#e58139"] ;
714 -> 715 ;
716 [label="2 <= 0.5\ngini = 0.444\nsamples = 3\nvalue = [2, 1]", fillcolor="#f2c09c"] ;
714 -> 716 ;
717 [label="gini = 0.5\nsamples = 2\nvalue = [1, 1]", fillcolor="#ffffff"] ;
716 -> 717 ;
718 [label="gini = 0.0\nsamples = 1\nvalue = [1, 0]", fillcolor="#e58139"] ;
716 -> 718 ;
719 [label="8 <= 0.5\ngini = 0.32\nsamples = 5\nvalue = [1, 4]", fillcolor="#6ab6ec"] ;
711 -> 719 ;
720 [label="6 <= 0.5\ngini = 0.5\nsamples = 2\nvalue = [1, 1]", fillcolor="#ffffff"] ;
719 -> 720 ;
721 [label="gini = 0.0\nsamples = 1\nvalue = [0, 1]", fillcolor="#399de5"] ;
720 -> 721 ;
722 [label="gini = 0.0\nsamples = 1\nvalue = [1, 0]", fillcolor="#e58139"] ;
720 -> 722 ;
723 [label="gini = 0.0\nsamples = 3\nvalue = [0, 3]", fillcolor="#399de5"] ;
719 -> 723 ;
724 [label="8 <= 0.5\ngini = 0.444\nsamples = 171\nvalue = [57, 114]", fillcolor="#9ccef2"] ;
704 -> 724 ;
725 [label="6 <= 0.5\ngini = 0.431\nsamples = 156\nvalue = [49, 107]", fillcolor="#94caf1"] ;
724 -> 725 ;
726 [label="14 <= 0.5\ngini = 0.469\nsamples = 101\nvalue = [38, 63]", fillcolor="#b0d8f5"] ;
725 -> 726 ;
727 [label="10 <= 0.5\ngini = 0.478\nsamples = 96\nvalue = [38, 58]", fillcolor="#bbddf6"] ;
726 -> 727 ;
728 [label="11 <= 0.5\ngini = 0.456\nsamples = 57\nvalue = [20, 37]", fillcolor="#a4d2f3"] ;
727 -> 728 ;
729 [label="13 <= 0.5\ngini = 0.489\nsamples = 40\nvalue = [17, 23]", fillcolor="#cbe5f8"] ;
728 -> 729 ;
730 [label="gini = 0.0\nsamples = 2\nvalue = [2, 0]", fillcolor="#e58139"] ;
729 -> 730 ;
731 [label="22 <= 0.5\ngini = 0.478\nsamples = 38\nvalue = [15, 23]", fillcolor="#baddf6"] ;
729 -> 731 ;
732 [label="0 <= 0.7\ngini = 0.495\nsamples = 29\nvalue = [13, 16]", fillcolor="#daedfa"] ;
731 -> 732 ;
733 [label="20 <= 0.5\ngini = 0.499\nsamples = 25\nvalue = [12, 13]", fillcolor="#f0f7fd"] ;
732 -> 733 ;
734 [label="3 <= 0.5\ngini = 0.473\nsamples = 13\nvalue = [5, 8]", fillcolor="#b5daf5"] ;
733 -> 734 ;
735 [label="gini = 0.0\nsamples = 1\nvalue = [0, 1]", fillcolor="#399de5"] ;
734 -> 735 ;
736 [label="23 <= 0.5\ngini = 0.486\nsamples = 12\nvalue = [5, 7]", fillcolor="#c6e3f8"] ;
734 -> 736 ;
737 [label="0 <= 0.633\ngini = 0.5\nsamples = 2\nvalue = [1, 1]", fillcolor="#ffffff"] ;
736 -> 737 ;
738 [label="gini = 0.0\nsamples = 1\nvalue = [1, 0]", fillcolor="#e58139"] ;
737 -> 738 ;
739 [label="gini = 0.0\nsamples = 1\nvalue = [0, 1]", fillcolor="#399de5"] ;
737 -> 739 ;
740 [label="0 <= 0.633\ngini = 0.48\nsamples = 10\nvalue = [4, 6]", fillcolor="#bddef6"] ;
736 -> 740 ;
741 [label="gini = 0.444\nsamples = 9\nvalue = [3, 6]", fillcolor="#9ccef2"] ;
740 -> 741 ;
742 [label="gini = 0.0\nsamples = 1\nvalue = [1, 0]", fillcolor="#e58139"] ;
740 -> 742 ;
743 [label="3 <= 0.5\ngini = 0.486\nsamples = 12\nvalue = [7, 5]", fillcolor="#f8dbc6"] ;
733 -> 743 ;
744 [label="gini = 0.0\nsamples = 2\nvalue = [2, 0]", fillcolor="#e58139"] ;
743 -> 744 ;
745 [label="0 <= 0.633\ngini = 0.5\nsamples = 10\nvalue = [5, 5]", fillcolor="#ffffff"] ;
743 -> 745 ;
746 [label="gini = 0.469\nsamples = 8\nvalue = [5, 3]", fillcolor="#f5cdb0"] ;
745 -> 746 ;
747 [label="gini = 0.0\nsamples = 2\nvalue = [0, 2]", fillcolor="#399de5"] ;
745 -> 747 ;
748 [label="20 <= 0.5\ngini = 0.375\nsamples = 4\nvalue = [1, 3]", fillcolor="#7bbeee"] ;
732 -> 748 ;
749 [label="gini = 0.0\nsamples = 1\nvalue = [1, 0]", fillcolor="#e58139"] ;
748 -> 749 ;
750 [label="gini = 0.0\nsamples = 3\nvalue = [0, 3]", fillcolor="#399de5"] ;
748 -> 750 ;
751 [label="0 <= 0.667\ngini = 0.346\nsamples = 9\nvalue = [2, 7]", fillcolor="#72b9ec"] ;
731 -> 751 ;
752 [label="gini = 0.219\nsamples = 8\nvalue = [1, 7]", fillcolor="#55abe9"] ;
751 -> 752 ;
753 [label="gini = 0.0\nsamples = 1\nvalue = [1, 0]", fillcolor="#e58139"] ;
751 -> 753 ;
754 [label="0 <= 0.633\ngini = 0.291\nsamples = 17\nvalue = [3, 14]", fillcolor="#63b2eb"] ;
728 -> 754 ;
755 [label="20 <= 0.5\ngini = 0.18\nsamples = 10\nvalue = [1, 9]", fillcolor="#4fa8e8"] ;
754 -> 755 ;
756 [label="gini = 0.0\nsamples = 3\nvalue = [0, 3]", fillcolor="#399de5"] ;
755 -> 756 ;
757 [label="23 <= 0.5\ngini = 0.245\nsamples = 7\nvalue = [1, 6]", fillcolor="#5aade9"] ;
755 -> 757 ;
758 [label="gini = 0.0\nsamples = 1\nvalue = [0, 1]", fillcolor="#399de5"] ;
757 -> 758 ;
759 [label="3 <= 0.5\ngini = 0.278\nsamples = 6\nvalue = [1, 5]", fillcolor="#61b1ea"] ;
757 -> 759 ;
760 [label="gini = 0.0\nsamples = 1\nvalue = [0, 1]", fillcolor="#399de5"] ;
759 -> 760 ;
761 [label="2 <= 0.5\ngini = 0.32\nsamples = 5\nvalue = [1, 4]", fillcolor="#6ab6ec"] ;
759 -> 761 ;
762 [label="gini = 0.375\nsamples = 4\nvalue = [1, 3]", fillcolor="#7bbeee"] ;
761 -> 762 ;
763 [label="gini = 0.0\nsamples = 1\nvalue = [0, 1]", fillcolor="#399de5"] ;
761 -> 763 ;
764 [label="20 <= 0.5\ngini = 0.408\nsamples = 7\nvalue = [2, 5]", fillcolor="#88c4ef"] ;
754 -> 764 ;
765 [label="0 <= 0.7\ngini = 0.444\nsamples = 3\nvalue = [1, 2]", fillcolor="#9ccef2"] ;
764 -> 765 ;
766 [label="gini = 0.5\nsamples = 2\nvalue = [1, 1]", fillcolor="#ffffff"] ;
765 -> 766 ;
767 [label="gini = 0.0\nsamples = 1\nvalue = [0, 1]", fillcolor="#399de5"] ;
765 -> 767 ;
768 [label="0 <= 0.7\ngini = 0.375\nsamples = 4\nvalue = [1, 3]", fillcolor="#7bbeee"] ;
764 -> 768 ;
769 [label="gini = 0.0\nsamples = 1\nvalue = [0, 1]", fillcolor="#399de5"] ;
768 -> 769 ;
770 [label="gini = 0.444\nsamples = 3\nvalue = [1, 2]", fillcolor="#9ccef2"] ;
768 -> 770 ;
771 [label="3 <= 0.5\ngini = 0.497\nsamples = 39\nvalue = [18, 21]", fillcolor="#e3f1fb"] ;
727 -> 771 ;
772 [label="gini = 0.0\nsamples = 2\nvalue = [0, 2]", fillcolor="#399de5"] ;
771 -> 772 ;
773 [label="23 <= 0.5\ngini = 0.5\nsamples = 37\nvalue = [18, 19]", fillcolor="#f5fafe"] ;
771 -> 773 ;
774 [label="gini = 0.0\nsamples = 1\nvalue = [1, 0]", fillcolor="#e58139"] ;
773 -> 774 ;
775 [label="20 <= 0.5\ngini = 0.498\nsamples = 36\nvalue = [17, 19]", fillcolor="#eaf5fc"] ;
773 -> 775 ;
776 [label="0 <= 0.7\ngini = 0.499\nsamples = 23\nvalue = [12, 11]", fillcolor="#fdf5ef"] ;
775 -> 776 ;
777 [label="11 <= 0.5\ngini = 0.494\nsamples = 18\nvalue = [8, 10]", fillcolor="#d7ebfa"] ;
776 -> 777 ;
778 [label="13 <= 0.5\ngini = 0.484\nsamples = 17\nvalue = [7, 10]", fillcolor="#c4e2f7"] ;
777 -> 778 ;
779 [label="gini = 0.0\nsamples = 1\nvalue = [0, 1]", fillcolor="#399de5"] ;
778 -> 779 ;
780 [label="0 <= 0.633\ngini = 0.492\nsamples = 16\nvalue = [7, 9]", fillcolor="#d3e9f9"] ;
778 -> 780 ;
781 [label="22 <= 0.5\ngini = 0.49\nsamples = 14\nvalue = [6, 8]", fillcolor="#cee6f8"] ;
780 -> 781 ;
782 [label="gini = 0.49\nsamples = 7\nvalue = [3, 4]", fillcolor="#cee6f8"] ;
781 -> 782 ;
783 [label="gini = 0.49\nsamples = 7\nvalue = [3, 4]", fillcolor="#cee6f8"] ;
781 -> 783 ;
784 [label="gini = 0.5\nsamples = 2\nvalue = [1, 1]", fillcolor="#ffffff"] ;
780 -> 784 ;
785 [label="gini = 0.0\nsamples = 1\nvalue = [1, 0]", fillcolor="#e58139"] ;
777 -> 785 ;
786 [label="22 <= 0.5\ngini = 0.32\nsamples = 5\nvalue = [4, 1]", fillcolor="#eca06a"] ;
776 -> 786 ;
787 [label="gini = 0.0\nsamples = 2\nvalue = [2, 0]", fillcolor="#e58139"] ;
786 -> 787 ;
788 [label="gini = 0.444\nsamples = 3\nvalue = [2, 1]", fillcolor="#f2c09c"] ;
786 -> 788 ;
789 [label="0 <= 0.633\ngini = 0.473\nsamples = 13\nvalue = [5, 8]", fillcolor="#b5daf5"] ;
775 -> 789 ;
790 [label="13 <= 0.5\ngini = 0.494\nsamples = 9\nvalue = [5, 4]", fillcolor="#fae6d7"] ;
789 -> 790 ;
791 [label="gini = 0.5\nsamples = 6\nvalue = [3, 3]", fillcolor="#ffffff"] ;
790 -> 791 ;
792 [label="gini = 0.444\nsamples = 3\nvalue = [2, 1]", fillcolor="#f2c09c"] ;
790 -> 792 ;
793 [label="gini = 0.0\nsamples = 4\nvalue = [0, 4]", fillcolor="#399de5"] ;
789 -> 793 ;
794 [label="gini = 0.0\nsamples = 5\nvalue = [0, 5]", fillcolor="#399de5"] ;
726 -> 794 ;
795 [label="20 <= 0.5\ngini = 0.32\nsamples = 55\nvalue = [11, 44]", fillcolor="#6ab6ec"] ;
725 -> 795 ;
796 [label="11 <= 0.5\ngini = 0.219\nsamples = 40\nvalue = [5, 35]", fillcolor="#55abe9"] ;
795 -> 796 ;
797 [label="22 <= 0.5\ngini = 0.161\nsamples = 34\nvalue = [3, 31]", fillcolor="#4ca6e8"] ;
796 -> 797 ;
798 [label="gini = 0.0\nsamples = 18\nvalue = [0, 18]", fillcolor="#399de5"] ;
797 -> 798 ;
799 [label="10 <= 0.5\ngini = 0.305\nsamples = 16\nvalue = [3, 13]", fillcolor="#67b4eb"] ;
797 -> 799 ;
800 [label="gini = 0.0\nsamples = 7\nvalue = [0, 7]", fillcolor="#399de5"] ;
799 -> 800 ;
801 [label="13 <= 0.5\ngini = 0.444\nsamples = 9\nvalue = [3, 6]", fillcolor="#9ccef2"] ;
799 -> 801 ;
802 [label="14 <= 0.5\ngini = 0.278\nsamples = 6\nvalue = [1, 5]", fillcolor="#61b1ea"] ;
801 -> 802 ;
803 [label="gini = 0.0\nsamples = 2\nvalue = [0, 2]", fillcolor="#399de5"] ;
802 -> 803 ;
804 [label="gini = 0.375\nsamples = 4\nvalue = [1, 3]", fillcolor="#7bbeee"] ;
802 -> 804 ;
805 [label="0 <= 0.667\ngini = 0.444\nsamples = 3\nvalue = [2, 1]", fillcolor="#f2c09c"] ;
801 -> 805 ;
806 [label="gini = 0.5\nsamples = 2\nvalue = [1, 1]", fillcolor="#ffffff"] ;
805 -> 806 ;
807 [label="gini = 0.0\nsamples = 1\nvalue = [1, 0]", fillcolor="#e58139"] ;
805 -> 807 ;
808 [label="0 <= 0.7\ngini = 0.444\nsamples = 6\nvalue = [2, 4]", fillcolor="#9ccef2"] ;
796 -> 808 ;
809 [label="0 <= 0.633\ngini = 0.48\nsamples = 5\nvalue = [2, 3]", fillcolor="#bddef6"] ;
808 -> 809 ;
810 [label="23 <= 0.5\ngini = 0.375\nsamples = 4\nvalue = [1, 3]", fillcolor="#7bbeee"] ;
809 -> 810 ;
811 [label="gini = 0.0\nsamples = 1\nvalue = [0, 1]", fillcolor="#399de5"] ;
810 -> 811 ;
812 [label="gini = 0.444\nsamples = 3\nvalue = [1, 2]", fillcolor="#9ccef2"] ;
810 -> 812 ;
813 [label="gini = 0.0\nsamples = 1\nvalue = [1, 0]", fillcolor="#e58139"] ;
809 -> 813 ;
814 [label="gini = 0.0\nsamples = 1\nvalue = [0, 1]", fillcolor="#399de5"] ;
808 -> 814 ;
815 [label="0 <= 0.633\ngini = 0.48\nsamples = 15\nvalue = [6, 9]", fillcolor="#bddef6"] ;
795 -> 815 ;
816 [label="23 <= 0.5\ngini = 0.5\nsamples = 10\nvalue = [5, 5]", fillcolor="#ffffff"] ;
815 -> 816 ;
817 [label="gini = 0.0\nsamples = 1\nvalue = [0, 1]", fillcolor="#399de5"] ;
816 -> 817 ;
818 [label="3 <= 0.5\ngini = 0.494\nsamples = 9\nvalue = [5, 4]", fillcolor="#fae6d7"] ;
816 -> 818 ;
819 [label="gini = 0.0\nsamples = 1\nvalue = [0, 1]", fillcolor="#399de5"] ;
818 -> 819 ;
820 [label="13 <= 0.5\ngini = 0.469\nsamples = 8\nvalue = [5, 3]", fillcolor="#f5cdb0"] ;
818 -> 820 ;
821 [label="gini = 0.0\nsamples = 1\nvalue = [1, 0]", fillcolor="#e58139"] ;
820 -> 821 ;
822 [label="10 <= 0.5\ngini = 0.49\nsamples = 7\nvalue = [4, 3]", fillcolor="#f8e0ce"] ;
820 -> 822 ;
823 [label="gini = 0.48\nsamples = 5\nvalue = [3, 2]", fillcolor="#f6d5bd"] ;
822 -> 823 ;
824 [label="gini = 0.5\nsamples = 2\nvalue = [1, 1]", fillcolor="#ffffff"] ;
822 -> 824 ;
825 [label="3 <= 0.5\ngini = 0.32\nsamples = 5\nvalue = [1, 4]", fillcolor="#6ab6ec"] ;
815 -> 825 ;
826 [label="gini = 0.0\nsamples = 1\nvalue = [1, 0]", fillcolor="#e58139"] ;
825 -> 826 ;
827 [label="gini = 0.0\nsamples = 4\nvalue = [0, 4]", fillcolor="#399de5"] ;
825 -> 827 ;
828 [label="22 <= 0.5\ngini = 0.498\nsamples = 15\nvalue = [8, 7]", fillcolor="#fcefe6"] ;
724 -> 828 ;
829 [label="5 <= 0.5\ngini = 0.463\nsamples = 11\nvalue = [4, 7]", fillcolor="#aad5f4"] ;
828 -> 829 ;
830 [label="13 <= 0.5\ngini = 0.48\nsamples = 5\nvalue = [3, 2]", fillcolor="#f6d5bd"] ;
829 -> 830 ;
831 [label="20 <= 0.5\ngini = 0.444\nsamples = 3\nvalue = [1, 2]", fillcolor="#9ccef2"] ;
830 -> 831 ;
832 [label="gini = 0.5\nsamples = 2\nvalue = [1, 1]", fillcolor="#ffffff"] ;
831 -> 832 ;
833 [label="gini = 0.0\nsamples = 1\nvalue = [0, 1]", fillcolor="#399de5"] ;
831 -> 833 ;
834 [label="gini = 0.0\nsamples = 2\nvalue = [2, 0]", fillcolor="#e58139"] ;
830 -> 834 ;
835 [label="23 <= 0.5\ngini = 0.278\nsamples = 6\nvalue = [1, 5]", fillcolor="#61b1ea"] ;
829 -> 835 ;
836 [label="gini = 0.0\nsamples = 1\nvalue = [1, 0]", fillcolor="#e58139"] ;
835 -> 836 ;
837 [label="gini = 0.0\nsamples = 5\nvalue = [0, 5]", fillcolor="#399de5"] ;
835 -> 837 ;
838 [label="gini = 0.0\nsamples = 4\nvalue = [4, 0]", fillcolor="#e58139"] ;
828 -> 838 ;
839 [label="2 <= 0.5\ngini = 0.397\nsamples = 11\nvalue = [8, 3]", fillcolor="#efb083"] ;
703 -> 839 ;
840 [label="20 <= 0.5\ngini = 0.32\nsamples = 10\nvalue = [8, 2]", fillcolor="#eca06a"] ;
839 -> 840 ;
841 [label="8 <= 0.5\ngini = 0.408\nsamples = 7\nvalue = [5, 2]", fillcolor="#efb388"] ;
840 -> 841 ;
842 [label="10 <= 0.5\ngini = 0.48\nsamples = 5\nvalue = [3, 2]", fillcolor="#f6d5bd"] ;
841 -> 842 ;
843 [label="24 <= 0.5\ngini = 0.444\nsamples = 3\nvalue = [2, 1]", fillcolor="#f2c09c"] ;
842 -> 843 ;
844 [label="gini = 0.5\nsamples = 2\nvalue = [1, 1]", fillcolor="#ffffff"] ;
843 -> 844 ;
845 [label="gini = 0.0\nsamples = 1\nvalue = [1, 0]", fillcolor="#e58139"] ;
843 -> 845 ;
846 [label="22 <= 0.5\ngini = 0.5\nsamples = 2\nvalue = [1, 1]", fillcolor="#ffffff"] ;
842 -> 846 ;
847 [label="gini = 0.0\nsamples = 1\nvalue = [1, 0]", fillcolor="#e58139"] ;
846 -> 847 ;
848 [label="gini = 0.0\nsamples = 1\nvalue = [0, 1]", fillcolor="#399de5"] ;
846 -> 848 ;
849 [label="gini = 0.0\nsamples = 2\nvalue = [2, 0]", fillcolor="#e58139"] ;
841 -> 849 ;
850 [label="gini = 0.0\nsamples = 3\nvalue = [3, 0]", fillcolor="#e58139"] ;
840 -> 850 ;
851 [label="gini = 0.0\nsamples = 1\nvalue = [0, 1]", fillcolor="#399de5"] ;
839 -> 851 ;
852 [label="2 <= 0.5\ngini = 0.289\nsamples = 366\nvalue = [64, 302]", fillcolor="#63b2eb"] ;
702 -> 852 ;
853 [label="13 <= 0.5\ngini = 0.318\nsamples = 312\nvalue = [62, 250]", fillcolor="#6ab5eb"] ;
852 -> 853 ;
854 [label="14 <= 0.5\ngini = 0.412\nsamples = 117\nvalue = [34, 83]", fillcolor="#8ac5f0"] ;
853 -> 854 ;
855 [label="7 <= 0.5\ngini = 0.435\nsamples = 100\nvalue = [32, 68]", fillcolor="#96cbf1"] ;
854 -> 855 ;
856 [label="8 <= 0.5\ngini = 0.43\nsamples = 99\nvalue = [31, 68]", fillcolor="#93caf1"] ;
855 -> 856 ;
857 [label="22 <= 0.5\ngini = 0.404\nsamples = 82\nvalue = [23, 59]", fillcolor="#86c3ef"] ;
856 -> 857 ;
858 [label="24 <= 0.5\ngini = 0.382\nsamples = 74\nvalue = [19, 55]", fillcolor="#7dbfee"] ;
857 -> 858 ;
859 [label="gini = 0.0\nsamples = 5\nvalue = [0, 5]", fillcolor="#399de5"] ;
858 -> 859 ;
860 [label="20 <= 0.5\ngini = 0.399\nsamples = 69\nvalue = [19, 50]", fillcolor="#84c2ef"] ;
858 -> 860 ;
861 [label="5 <= 0.5\ngini = 0.424\nsamples = 59\nvalue = [18, 41]", fillcolor="#90c8f0"] ;
860 -> 861 ;
862 [label="0 <= 0.833\ngini = 0.346\nsamples = 27\nvalue = [6, 21]", fillcolor="#72b9ec"] ;
861 -> 862 ;
863 [label="3 <= 0.5\ngini = 0.48\nsamples = 10\nvalue = [4, 6]", fillcolor="#bddef6"] ;
862 -> 863 ;
864 [label="gini = 0.0\nsamples = 1\nvalue = [0, 1]", fillcolor="#399de5"] ;
863 -> 864 ;
865 [label="11 <= 0.5\ngini = 0.494\nsamples = 9\nvalue = [4, 5]", fillcolor="#d7ebfa"] ;
863 -> 865 ;
866 [label="9 <= 0.5\ngini = 0.375\nsamples = 4\nvalue = [1, 3]", fillcolor="#7bbeee"] ;
865 -> 866 ;
867 [label="gini = 0.5\nsamples = 2\nvalue = [1, 1]", fillcolor="#ffffff"] ;
866 -> 867 ;
868 [label="gini = 0.0\nsamples = 2\nvalue = [0, 2]", fillcolor="#399de5"] ;
866 -> 868 ;
869 [label="9 <= 0.5\ngini = 0.48\nsamples = 5\nvalue = [3, 2]", fillcolor="#f6d5bd"] ;
865 -> 869 ;
870 [label="gini = 0.5\nsamples = 2\nvalue = [1, 1]", fillcolor="#ffffff"] ;
869 -> 870 ;
871 [label="gini = 0.444\nsamples = 3\nvalue = [2, 1]", fillcolor="#f2c09c"] ;
869 -> 871 ;
872 [label="0 <= 0.9\ngini = 0.208\nsamples = 17\nvalue = [2, 15]", fillcolor="#53aae8"] ;
862 -> 872 ;
873 [label="9 <= 0.5\ngini = 0.278\nsamples = 12\nvalue = [2, 10]", fillcolor="#61b1ea"] ;
872 -> 873 ;
874 [label="23 <= 0.5\ngini = 0.198\nsamples = 9\nvalue = [1, 8]", fillcolor="#52a9e8"] ;
873 -> 874 ;
875 [label="gini = 0.0\nsamples = 1\nvalue = [0, 1]", fillcolor="#399de5"] ;
874 -> 875 ;
876 [label="gini = 0.219\nsamples = 8\nvalue = [1, 7]", fillcolor="#55abe9"] ;
874 -> 876 ;
877 [label="gini = 0.444\nsamples = 3\nvalue = [1, 2]", fillcolor="#9ccef2"] ;
873 -> 877 ;
878 [label="gini = 0.0\nsamples = 5\nvalue = [0, 5]", fillcolor="#399de5"] ;
872 -> 878 ;
879 [label="9 <= 0.5\ngini = 0.469\nsamples = 32\nvalue = [12, 20]", fillcolor="#b0d8f5"] ;
861 -> 879 ;
880 [label="3 <= 0.5\ngini = 0.408\nsamples = 21\nvalue = [6, 15]", fillcolor="#88c4ef"] ;
879 -> 880 ;
881 [label="gini = 0.0\nsamples = 2\nvalue = [0, 2]", fillcolor="#399de5"] ;
880 -> 881 ;
882 [label="0 <= 0.9\ngini = 0.432\nsamples = 19\nvalue = [6, 13]", fillcolor="#94caf1"] ;
880 -> 882 ;
883 [label="11 <= 0.5\ngini = 0.459\nsamples = 14\nvalue = [5, 9]", fillcolor="#a7d3f3"] ;
882 -> 883 ;
884 [label="0 <= 0.833\ngini = 0.48\nsamples = 5\nvalue = [2, 3]", fillcolor="#bddef6"] ;
883 -> 884 ;
885 [label="gini = 0.5\nsamples = 4\nvalue = [2, 2]", fillcolor="#ffffff"] ;
884 -> 885 ;
886 [label="gini = 0.0\nsamples = 1\nvalue = [0, 1]", fillcolor="#399de5"] ;
884 -> 886 ;
887 [label="0 <= 0.833\ngini = 0.444\nsamples = 9\nvalue = [3, 6]", fillcolor="#9ccef2"] ;
883 -> 887 ;
888 [label="gini = 0.375\nsamples = 4\nvalue = [1, 3]", fillcolor="#7bbeee"] ;
887 -> 888 ;
889 [label="gini = 0.48\nsamples = 5\nvalue = [2, 3]", fillcolor="#bddef6"] ;
887 -> 889 ;
890 [label="11 <= 0.5\ngini = 0.32\nsamples = 5\nvalue = [1, 4]", fillcolor="#6ab6ec"] ;
882 -> 890 ;
891 [label="gini = 0.0\nsamples = 3\nvalue = [0, 3]", fillcolor="#399de5"] ;
890 -> 891 ;
892 [label="gini = 0.5\nsamples = 2\nvalue = [1, 1]", fillcolor="#ffffff"] ;
890 -> 892 ;
893 [label="0 <= 0.833\ngini = 0.496\nsamples = 11\nvalue = [6, 5]", fillcolor="#fbeade"] ;
879 -> 893 ;
894 [label="23 <= 0.5\ngini = 0.408\nsamples = 7\nvalue = [2, 5]", fillcolor="#88c4ef"] ;
893 -> 894 ;
895 [label="gini = 0.0\nsamples = 1\nvalue = [0, 1]", fillcolor="#399de5"] ;
894 -> 895 ;
896 [label="11 <= 0.5\ngini = 0.444\nsamples = 6\nvalue = [2, 4]", fillcolor="#9ccef2"] ;
894 -> 896 ;
897 [label="gini = 0.0\nsamples = 1\nvalue = [0, 1]", fillcolor="#399de5"] ;
896 -> 897 ;
898 [label="gini = 0.48\nsamples = 5\nvalue = [2, 3]", fillcolor="#bddef6"] ;
896 -> 898 ;
899 [label="gini = 0.0\nsamples = 4\nvalue = [4, 0]", fillcolor="#e58139"] ;
893 -> 899 ;
900 [label="0 <= 0.833\ngini = 0.18\nsamples = 10\nvalue = [1, 9]", fillcolor="#4fa8e8"] ;
860 -> 900 ;
901 [label="gini = 0.0\nsamples = 5\nvalue = [0, 5]", fillcolor="#399de5"] ;
900 -> 901 ;
902 [label="23 <= 0.5\ngini = 0.32\nsamples = 5\nvalue = [1, 4]", fillcolor="#6ab6ec"] ;
900 -> 902 ;
903 [label="gini = 0.0\nsamples = 1\nvalue = [0, 1]", fillcolor="#399de5"] ;
902 -> 903 ;
904 [label="0 <= 0.9\ngini = 0.375\nsamples = 4\nvalue = [1, 3]", fillcolor="#7bbeee"] ;
902 -> 904 ;
905 [label="gini = 0.444\nsamples = 3\nvalue = [1, 2]", fillcolor="#9ccef2"] ;
904 -> 905 ;
906 [label="gini = 0.0\nsamples = 1\nvalue = [0, 1]", fillcolor="#399de5"] ;
904 -> 906 ;
907 [label="6 <= 0.5\ngini = 0.5\nsamples = 8\nvalue = [4, 4]", fillcolor="#ffffff"] ;
857 -> 907 ;
908 [label="9 <= 0.5\ngini = 0.48\nsamples = 5\nvalue = [2, 3]", fillcolor="#bddef6"] ;
907 -> 908 ;
909 [label="gini = 0.0\nsamples = 2\nvalue = [0, 2]", fillcolor="#399de5"] ;
908 -> 909 ;
910 [label="gini = 0.444\nsamples = 3\nvalue = [2, 1]", fillcolor="#f2c09c"] ;
908 -> 910 ;
911 [label="9 <= 0.5\ngini = 0.444\nsamples = 3\nvalue = [2, 1]", fillcolor="#f2c09c"] ;
907 -> 911 ;
912 [label="gini = 0.0\nsamples = 2\nvalue = [2, 0]", fillcolor="#e58139"] ;
911 -> 912 ;
913 [label="gini = 0.0\nsamples = 1\nvalue = [0, 1]", fillcolor="#399de5"] ;
911 -> 913 ;
914 [label="6 <= 0.5\ngini = 0.498\nsamples = 17\nvalue = [8, 9]", fillcolor="#e9f4fc"] ;
856 -> 914 ;
915 [label="3 <= 0.5\ngini = 0.375\nsamples = 8\nvalue = [2, 6]", fillcolor="#7bbeee"] ;
914 -> 915 ;
916 [label="gini = 0.0\nsamples = 1\nvalue = [1, 0]", fillcolor="#e58139"] ;
915 -> 916 ;
917 [label="0 <= 0.833\ngini = 0.245\nsamples = 7\nvalue = [1, 6]", fillcolor="#5aade9"] ;
915 -> 917 ;
918 [label="23 <= 0.5\ngini = 0.444\nsamples = 3\nvalue = [1, 2]", fillcolor="#9ccef2"] ;
917 -> 918 ;
919 [label="gini = 0.0\nsamples = 1\nvalue = [0, 1]", fillcolor="#399de5"] ;
918 -> 919 ;
920 [label="gini = 0.5\nsamples = 2\nvalue = [1, 1]", fillcolor="#ffffff"] ;
918 -> 920 ;
921 [label="gini = 0.0\nsamples = 4\nvalue = [0, 4]", fillcolor="#399de5"] ;
917 -> 921 ;
922 [label="11 <= 0.5\ngini = 0.444\nsamples = 9\nvalue = [6, 3]", fillcolor="#f2c09c"] ;
914 -> 922 ;
923 [label="gini = 0.0\nsamples = 3\nvalue = [3, 0]", fillcolor="#e58139"] ;
922 -> 923 ;
924 [label="0 <= 0.833\ngini = 0.5\nsamples = 6\nvalue = [3, 3]", fillcolor="#ffffff"] ;
922 -> 924 ;
925 [label="gini = 0.0\nsamples = 3\nvalue = [3, 0]", fillcolor="#e58139"] ;
924 -> 925 ;
926 [label="gini = 0.0\nsamples = 3\nvalue = [0, 3]", fillcolor="#399de5"] ;
924 -> 926 ;
927 [label="gini = 0.0\nsamples = 1\nvalue = [1, 0]", fillcolor="#e58139"] ;
855 -> 927 ;
928 [label="9 <= 0.5\ngini = 0.208\nsamples = 17\nvalue = [2, 15]", fillcolor="#53aae8"] ;
854 -> 928 ;
929 [label="gini = 0.0\nsamples = 12\nvalue = [0, 12]", fillcolor="#399de5"] ;
928 -> 929 ;
930 [label="22 <= 0.5\ngini = 0.48\nsamples = 5\nvalue = [2, 3]", fillcolor="#bddef6"] ;
928 -> 930 ;
931 [label="3 <= 0.5\ngini = 0.444\nsamples = 3\nvalue = [2, 1]", fillcolor="#f2c09c"] ;
930 -> 931 ;
932 [label="gini = 0.0\nsamples = 1\nvalue = [0, 1]", fillcolor="#399de5"] ;
931 -> 932 ;
933 [label="gini = 0.0\nsamples = 2\nvalue = [2, 0]", fillcolor="#e58139"] ;
931 -> 933 ;
934 [label="gini = 0.0\nsamples = 2\nvalue = [0, 2]", fillcolor="#399de5"] ;
930 -> 934 ;
935 [label="20 <= 0.5\ngini = 0.246\nsamples = 195\nvalue = [28, 167]", fillcolor="#5aade9"] ;
853 -> 935 ;
936 [label="8 <= 0.5\ngini = 0.206\nsamples = 172\nvalue = [20, 152]", fillcolor="#53aae8"] ;
935 -> 936 ;
937 [label="5 <= 0.5\ngini = 0.189\nsamples = 161\nvalue = [17, 144]", fillcolor="#50a9e8"] ;
936 -> 937 ;
938 [label="22 <= 0.5\ngini = 0.113\nsamples = 50\nvalue = [3, 47]", fillcolor="#46a3e7"] ;
937 -> 938 ;
939 [label="9 <= 0.5\ngini = 0.048\nsamples = 41\nvalue = [1, 40]", fillcolor="#3e9fe6"] ;
938 -> 939 ;
940 [label="gini = 0.0\nsamples = 23\nvalue = [0, 23]", fillcolor="#399de5"] ;
939 -> 940 ;
941 [label="0 <= 0.833\ngini = 0.105\nsamples = 18\nvalue = [1, 17]", fillcolor="#45a3e7"] ;
939 -> 941 ;
942 [label="3 <= 0.5\ngini = 0.198\nsamples = 9\nvalue = [1, 8]", fillcolor="#52a9e8"] ;
941 -> 942 ;
943 [label="gini = 0.0\nsamples = 1\nvalue = [0, 1]", fillcolor="#399de5"] ;
942 -> 943 ;
944 [label="23 <= 0.5\ngini = 0.219\nsamples = 8\nvalue = [1, 7]", fillcolor="#55abe9"] ;
942 -> 944 ;
945 [label="gini = 0.0\nsamples = 1\nvalue = [0, 1]", fillcolor="#399de5"] ;
944 -> 945 ;
946 [label="gini = 0.245\nsamples = 7\nvalue = [1, 6]", fillcolor="#5aade9"] ;
944 -> 946 ;
947 [label="gini = 0.0\nsamples = 9\nvalue = [0, 9]", fillcolor="#399de5"] ;
941 -> 947 ;
948 [label="10 <= 0.5\ngini = 0.346\nsamples = 9\nvalue = [2, 7]", fillcolor="#72b9ec"] ;
938 -> 948 ;
949 [label="0 <= 0.833\ngini = 0.5\nsamples = 2\nvalue = [1, 1]", fillcolor="#ffffff"] ;
948 -> 949 ;
950 [label="gini = 0.0\nsamples = 1\nvalue = [1, 0]", fillcolor="#e58139"] ;
949 -> 950 ;
951 [label="gini = 0.0\nsamples = 1\nvalue = [0, 1]", fillcolor="#399de5"] ;
949 -> 951 ;
952 [label="gini = 0.245\nsamples = 7\nvalue = [1, 6]", fillcolor="#5aade9"] ;
948 -> 952 ;
953 [label="3 <= 0.5\ngini = 0.22\nsamples = 111\nvalue = [14, 97]", fillcolor="#56abe9"] ;
937 -> 953 ;
954 [label="9 <= 0.5\ngini = 0.375\nsamples = 8\nvalue = [2, 6]", fillcolor="#7bbeee"] ;
953 -> 954 ;
955 [label="gini = 0.0\nsamples = 6\nvalue = [0, 6]", fillcolor="#399de5"] ;
954 -> 955 ;
956 [label="gini = 0.0\nsamples = 2\nvalue = [2, 0]", fillcolor="#e58139"] ;
954 -> 956 ;
957 [label="22 <= 0.5\ngini = 0.206\nsamples = 103\nvalue = [12, 91]", fillcolor="#53aae8"] ;
953 -> 957 ;
958 [label="24 <= 0.5\ngini = 0.225\nsamples = 85\nvalue = [11, 74]", fillcolor="#56ace9"] ;
957 -> 958 ;
959 [label="0 <= 0.867\ngini = 0.346\nsamples = 9\nvalue = [2, 7]", fillcolor="#72b9ec"] ;
958 -> 959 ;
960 [label="gini = 0.0\nsamples = 7\nvalue = [0, 7]", fillcolor="#399de5"] ;
959 -> 960 ;
961 [label="gini = 0.0\nsamples = 2\nvalue = [2, 0]", fillcolor="#e58139"] ;
959 -> 961 ;
962 [label="0 <= 0.9\ngini = 0.209\nsamples = 76\nvalue = [9, 67]", fillcolor="#54aae8"] ;
958 -> 962 ;
963 [label="10 <= 0.5\ngini = 0.245\nsamples = 63\nvalue = [9, 54]", fillcolor="#5aade9"] ;
962 -> 963 ;
964 [label="0 <= 0.833\ngini = 0.185\nsamples = 29\nvalue = [3, 26]", fillcolor="#50a8e8"] ;
963 -> 964 ;
965 [label="gini = 0.105\nsamples = 18\nvalue = [1, 17]", fillcolor="#45a3e7"] ;
964 -> 965 ;
966 [label="23 <= 0.5\ngini = 0.298\nsamples = 11\nvalue = [2, 9]", fillcolor="#65b3eb"] ;
964 -> 966 ;
967 [label="gini = 0.0\nsamples = 1\nvalue = [0, 1]", fillcolor="#399de5"] ;
966 -> 967 ;
968 [label="gini = 0.32\nsamples = 10\nvalue = [2, 8]", fillcolor="#6ab6ec"] ;
966 -> 968 ;
969 [label="23 <= 0.5\ngini = 0.291\nsamples = 34\nvalue = [6, 28]", fillcolor="#63b2eb"] ;
963 -> 969 ;
970 [label="gini = 0.0\nsamples = 2\nvalue = [0, 2]", fillcolor="#399de5"] ;
969 -> 970 ;
971 [label="0 <= 0.833\ngini = 0.305\nsamples = 32\nvalue = [6, 26]", fillcolor="#67b4eb"] ;
969 -> 971 ;
972 [label="gini = 0.346\nsamples = 18\nvalue = [4, 14]", fillcolor="#72b9ec"] ;
971 -> 972 ;
973 [label="gini = 0.245\nsamples = 14\nvalue = [2, 12]", fillcolor="#5aade9"] ;
971 -> 973 ;
974 [label="gini = 0.0\nsamples = 13\nvalue = [0, 13]", fillcolor="#399de5"] ;
962 -> 974 ;
975 [label="10 <= 0.5\ngini = 0.105\nsamples = 18\nvalue = [1, 17]", fillcolor="#45a3e7"] ;
957 -> 975 ;
976 [label="gini = 0.0\nsamples = 3\nvalue = [0, 3]", fillcolor="#399de5"] ;
975 -> 976 ;
977 [label="0 <= 0.833\ngini = 0.124\nsamples = 15\nvalue = [1, 14]", fillcolor="#47a4e7"] ;
975 -> 977 ;
978 [label="24 <= 0.5\ngini = 0.142\nsamples = 13\nvalue = [1, 12]", fillcolor="#49a5e7"] ;
977 -> 978 ;
979 [label="gini = 0.0\nsamples = 1\nvalue = [0, 1]", fillcolor="#399de5"] ;
978 -> 979 ;
980 [label="gini = 0.153\nsamples = 12\nvalue = [1, 11]", fillcolor="#4ba6e7"] ;
978 -> 980 ;
981 [label="gini = 0.0\nsamples = 2\nvalue = [0, 2]", fillcolor="#399de5"] ;
977 -> 981 ;
982 [label="6 <= 0.5\ngini = 0.397\nsamples = 11\nvalue = [3, 8]", fillcolor="#83c2ef"] ;
936 -> 982 ;
983 [label="gini = 0.0\nsamples = 6\nvalue = [0, 6]", fillcolor="#399de5"] ;
982 -> 983 ;
984 [label="22 <= 0.5\ngini = 0.48\nsamples = 5\nvalue = [3, 2]", fillcolor="#f6d5bd"] ;
982 -> 984 ;
985 [label="gini = 0.0\nsamples = 2\nvalue = [2, 0]", fillcolor="#e58139"] ;
984 -> 985 ;
986 [label="gini = 0.444\nsamples = 3\nvalue = [1, 2]", fillcolor="#9ccef2"] ;
984 -> 986 ;
987 [label="4 <= 0.5\ngini = 0.454\nsamples = 23\nvalue = [8, 15]", fillcolor="#a3d1f3"] ;
935 -> 987 ;
988 [label="3 <= 0.5\ngini = 0.434\nsamples = 22\nvalue = [7, 15]", fillcolor="#95cbf1"] ;
987 -> 988 ;
989 [label="0 <= 0.833\ngini = 0.48\nsamples = 5\nvalue = [3, 2]", fillcolor="#f6d5bd"] ;
988 -> 989 ;
990 [label="9 <= 0.5\ngini = 0.375\nsamples = 4\nvalue = [3, 1]", fillcolor="#eeab7b"] ;
989 -> 990 ;
991 [label="gini = 0.0\nsamples = 1\nvalue = [1, 0]", fillcolor="#e58139"] ;
990 -> 991 ;
992 [label="6 <= 0.5\ngini = 0.444\nsamples = 3\nvalue = [2, 1]", fillcolor="#f2c09c"] ;
990 -> 992 ;
993 [label="23 <= 0.5\ngini = 0.5\nsamples = 2\nvalue = [1, 1]", fillcolor="#ffffff"] ;
992 -> 993 ;
994 [label="gini = 0.0\nsamples = 1\nvalue = [1, 0]", fillcolor="#e58139"] ;
993 -> 994 ;
995 [label="gini = 0.0\nsamples = 1\nvalue = [0, 1]", fillcolor="#399de5"] ;
993 -> 995 ;
996 [label="gini = 0.0\nsamples = 1\nvalue = [1, 0]", fillcolor="#e58139"] ;
992 -> 996 ;
997 [label="gini = 0.0\nsamples = 1\nvalue = [0, 1]", fillcolor="#399de5"] ;
989 -> 997 ;
998 [label="10 <= 0.5\ngini = 0.36\nsamples = 17\nvalue = [4, 13]", fillcolor="#76bbed"] ;
988 -> 998 ;
999 [label="9 <= 0.5\ngini = 0.245\nsamples = 14\nvalue = [2, 12]", fillcolor="#5aade9"] ;
998 -> 999 ;
1000 [label="gini = 0.0\nsamples = 5\nvalue = [0, 5]", fillcolor="#399de5"] ;
999 -> 1000 ;
1001 [label="24 <= 0.5\ngini = 0.346\nsamples = 9\nvalue = [2, 7]", fillcolor="#72b9ec"] ;
999 -> 1001 ;
1002 [label="gini = 0.5\nsamples = 2\nvalue = [1, 1]", fillcolor="#ffffff"] ;
1001 -> 1002 ;
1003 [label="0 <= 0.833\ngini = 0.245\nsamples = 7\nvalue = [1, 6]", fillcolor="#5aade9"] ;
1001 -> 1003 ;
1004 [label="gini = 0.278\nsamples = 6\nvalue = [1, 5]", fillcolor="#61b1ea"] ;
1003 -> 1004 ;
1005 [label="gini = 0.0\nsamples = 1\nvalue = [0, 1]", fillcolor="#399de5"] ;
1003 -> 1005 ;
1006 [label="6 <= 0.5\ngini = 0.444\nsamples = 3\nvalue = [2, 1]", fillcolor="#f2c09c"] ;
998 -> 1006 ;
1007 [label="gini = 0.5\nsamples = 2\nvalue = [1, 1]", fillcolor="#ffffff"] ;
1006 -> 1007 ;
1008 [label="gini = 0.0\nsamples = 1\nvalue = [1, 0]", fillcolor="#e58139"] ;
1006 -> 1008 ;
1009 [label="gini = 0.0\nsamples = 1\nvalue = [1, 0]", fillcolor="#e58139"] ;
987 -> 1009 ;
1010 [label="7 <= 0.5\ngini = 0.071\nsamples = 54\nvalue = [2, 52]", fillcolor="#41a1e6"] ;
852 -> 1010 ;
1011 [label="0 <= 0.9\ngini = 0.039\nsamples = 50\nvalue = [1, 49]", fillcolor="#3d9fe6"] ;
1010 -> 1011 ;
1012 [label="gini = 0.0\nsamples = 36\nvalue = [0, 36]", fillcolor="#399de5"] ;
1011 -> 1012 ;
1013 [label="13 <= 0.5\ngini = 0.133\nsamples = 14\nvalue = [1, 13]", fillcolor="#48a5e7"] ;
1011 -> 1013 ;
1014 [label="gini = 0.0\nsamples = 10\nvalue = [0, 10]", fillcolor="#399de5"] ;
1013 -> 1014 ;
1015 [label="0 <= 0.967\ngini = 0.375\nsamples = 4\nvalue = [1, 3]", fillcolor="#7bbeee"] ;
1013 -> 1015 ;
1016 [label="9 <= 0.5\ngini = 0.5\nsamples = 2\nvalue = [1, 1]", fillcolor="#ffffff"] ;
1015 -> 1016 ;
1017 [label="gini = 0.0\nsamples = 1\nvalue = [1, 0]", fillcolor="#e58139"] ;
1016 -> 1017 ;
1018 [label="gini = 0.0\nsamples = 1\nvalue = [0, 1]", fillcolor="#399de5"] ;
1016 -> 1018 ;
1019 [label="gini = 0.0\nsamples = 2\nvalue = [0, 2]", fillcolor="#399de5"] ;
1015 -> 1019 ;
1020 [label="11 <= 0.5\ngini = 0.375\nsamples = 4\nvalue = [1, 3]", fillcolor="#7bbeee"] ;
1010 -> 1020 ;
1021 [label="gini = 0.0\nsamples = 3\nvalue = [0, 3]", fillcolor="#399de5"] ;
1020 -> 1021 ;
1022 [label="gini = 0.0\nsamples = 1\nvalue = [1, 0]", fillcolor="#e58139"] ;
1020 -> 1022 ;
1023 [label="7 <= 0.5\ngini = 0.087\nsamples = 132\nvalue = [6, 126]", fillcolor="#42a2e6"] ;
701 -> 1023 ;
1024 [label="20 <= 0.5\ngini = 0.075\nsamples = 128\nvalue = [5, 123]", fillcolor="#41a1e6"] ;
1023 -> 1024 ;
1025 [label="22 <= 0.5\ngini = 0.052\nsamples = 112\nvalue = [3, 109]", fillcolor="#3ea0e6"] ;
1024 -> 1025 ;
1026 [label="9 <= 0.5\ngini = 0.022\nsamples = 89\nvalue = [1, 88]", fillcolor="#3b9ee5"] ;
1025 -> 1026 ;
1027 [label="gini = 0.0\nsamples = 62\nvalue = [0, 62]", fillcolor="#399de5"] ;
1026 -> 1027 ;
1028 [label="5 <= 0.5\ngini = 0.071\nsamples = 27\nvalue = [1, 26]", fillcolor="#41a1e6"] ;
1026 -> 1028 ;
1029 [label="gini = 0.0\nsamples = 9\nvalue = [0, 9]", fillcolor="#399de5"] ;
